<?xml version="1.0"?>
<opencv_storage>
<opencv_ml_svm>
  <format>3</format>
  <svmType>C_SVC</svmType>
  <kernel>
    <type>LINEAR</type></kernel>
  <C>1.</C>
  <term_criteria><iterations>1000</iterations></term_criteria>
  <var_count>4032</var_count>
  <class_count>2</class_count>
  <class_labels type_id="opencv-matrix">
    <rows>2</rows>
    <cols>1</cols>
    <dt>i</dt>
    <data>
      0 1</data></class_labels>
  <sv_total>1</sv_total>
  <support_vectors>
    <_>
      2.37166819e-06 1.20581149e-06 1.19102617e-06 2.53845155e-06
      1.51324821e-06 -1.13943668e-06 -2.53497751e-06 -2.52338305e-06
      -3.49611378e-06 -2.68785743e-06 -1.38058851e-06 -5.77397088e-07
      -7.62104719e-07 -9.98831183e-07 -1.45922888e-06 -1.52930272e-06
      -6.33070215e-07 6.35641868e-08 7.64568000e-08 4.63913580e-07
      5.11509541e-07 9.40883524e-07 2.12934242e-06 1.22789345e-06
      9.59943165e-08 -5.83223823e-07 6.64070967e-07 1.35187076e-06
      2.05426818e-06 1.61553476e-06 8.98560302e-07 -4.14670239e-07
      -6.49358412e-07 6.45545697e-07 1.21088158e-06 2.77564283e-07
      -2.40061269e-07 -5.32995671e-07 -3.54019903e-07 -1.05390063e-06
      -5.70777161e-07 -2.60785214e-07 -2.15416753e-06 -4.02768092e-06
      -4.86778572e-06 -4.78813581e-06 -4.84451948e-06 -5.53822929e-06
      -5.11448889e-06 -4.95075119e-06 -4.41297288e-06 -5.46452020e-06
      -5.73436773e-06 -5.80204369e-06 -5.42868065e-06 -4.21373170e-06
      -3.76502067e-06 -3.14980184e-06 -3.08682434e-06 -3.72045815e-06
      -5.22483106e-06 -7.08201924e-06 -6.43879775e-06 -5.83083784e-06
      -6.99877501e-06 -5.96125528e-06 -5.88819148e-06 -5.53966856e-06
      -4.26432598e-06 -4.58140130e-06 -6.78037759e-06 -8.06990374e-06
      -8.12545750e-06 -9.54324787e-06 -1.07823143e-05 -1.14013665e-05
      -1.11999188e-05 -8.65427228e-06 -7.62891659e-06 -7.34085324e-06
      -8.36999425e-06 -8.96775327e-06 -8.11319296e-06 -8.84871679e-06
      -7.92180163e-06 -8.21822414e-06 -7.48812863e-06 -7.01112594e-06
      -7.03988735e-06 -6.85391433e-06 -7.24845722e-06 -7.86846613e-06
      -7.98821839e-06 -8.45713021e-06 -9.34884520e-06 -9.11347433e-06
      -9.58793589e-06 -9.39781603e-06 -7.77624155e-06 -7.22042932e-06
      -7.12944666e-06 -7.59113664e-06 -7.26172811e-06 -6.45462114e-06
      -6.69129076e-06 -6.38186339e-06 -6.15926683e-06 -5.13343048e-06
      -4.64557115e-06 -4.98976442e-06 -5.43921487e-06 -6.29028182e-06
      -6.68270968e-06 -8.80148673e-06 -1.08699223e-05 -1.14931918e-05
      -1.18345815e-05 -1.14906807e-05 -1.20697387e-05 -1.19448014e-05
      -1.13279830e-05 -1.20284994e-05 -1.30557182e-05 -1.43029865e-05
      -1.38895048e-05 -1.42104764e-05 -1.45878312e-05 -1.43366287e-05
      -1.38880341e-05 -1.34158745e-05 -1.34345137e-05 -1.27638868e-05
      -1.23248974e-05 -1.13278838e-05 -1.02944387e-05 -9.31512477e-06
      -8.37176685e-06 -9.99128952e-06 -1.22199290e-05 -1.09211214e-05
      -5.76669436e-06 -1.00306852e-06 1.13005763e-06 1.70677413e-06
      7.39059828e-07 1.05687548e-06 -3.90208584e-07 -1.56987278e-06
      -1.65347546e-06 -2.00575982e-06 -3.46733600e-06 -3.84267423e-06
      -3.98146676e-06 -3.34302399e-06 -2.81525968e-06 -2.44181979e-06
      -2.59062858e-06 -3.05129106e-06 -3.17662330e-06 -3.59853084e-06
      -3.47260948e-06 -2.90676257e-06 -3.04683613e-06 -3.90549985e-06
      -4.23348274e-06 -2.66541633e-06 -1.42690669e-06 -2.16585295e-06
      -2.08751862e-06 -2.15556997e-06 -2.79199708e-06 -2.24208884e-06
      -5.29386000e-07 -5.71227702e-07 -1.04597950e-06 -3.22811115e-06
      -3.13753435e-06 -1.79544202e-06 -1.20420259e-06 -3.10689848e-06
      -4.14844817e-06 -4.86618273e-06 -5.27524344e-06 -7.09068308e-06
      -8.71396605e-06 -8.62934030e-06 -9.27008750e-06 -9.68437689e-06
      -9.73749411e-06 -9.43469058e-06 -9.25279437e-06 -9.56989243e-06
      -1.14374352e-05 -9.24283540e-06 -8.51497043e-06 -1.02521535e-05
      -1.02422164e-05 -1.04431083e-05 -1.04760711e-05 -1.07500891e-05
      -1.05168047e-05 -1.00321467e-05 -1.02226895e-05 -1.07865653e-05
      -1.15886369e-05 -1.26431296e-05 -1.29202108e-05 -1.36508006e-05
      -1.29400787e-05 -1.24654634e-05 -1.22173642e-05 -1.26911846e-05
      -1.28942256e-05 -1.20541272e-05 -1.07989208e-05 -1.25264760e-05
      -1.49483458e-05 -1.47693963e-05 -1.55990019e-05 -1.56929455e-05
      -1.49279667e-05 -1.54136778e-05 -1.69592222e-05 -1.69937084e-05
      -1.71392348e-05 -1.68397983e-05 -1.56107817e-05 -1.58943076e-05
      -1.62227534e-05 -1.56433198e-05 -1.56345832e-05 -1.47014653e-05
      -1.48730187e-05 -1.52307202e-05 -1.63371133e-05 -1.55135913e-05
      -1.55944545e-05 -1.52309049e-05 -1.66002883e-05 -1.77114234e-05
      -1.84110722e-05 -1.63875047e-05 -1.35890077e-05 -1.35273749e-05
      -1.23174996e-05 -1.19013703e-05 -1.28354395e-05 -1.36391609e-05
      -1.38342366e-05 -1.28321526e-05 -1.06617181e-05 -9.10946073e-06
      -7.13706822e-06 -7.28146551e-06 -8.66212577e-06 -8.62882644e-06
      -8.36169329e-06 -9.12827545e-06 -1.02559734e-05 -1.04287483e-05
      -1.14200720e-05 -9.18303522e-06 -7.89881688e-06 -1.01308515e-05
      -9.34874697e-06 -1.11942982e-05 -1.16587908e-05 -1.20105760e-05
      -1.20501281e-05 -1.04747714e-05 -1.02669046e-05 -1.04814162e-05
      -1.17299323e-05 -1.15140201e-05 -1.09141783e-05 -1.14106197e-05
      -1.13625056e-05 -1.02919894e-05 -9.25071981e-06 -8.64029698e-06
      -7.75487570e-06 -9.00503801e-06 -9.30125680e-06 -1.08398863e-05
      -9.35581647e-06 -3.25657606e-06 -7.00512089e-07 8.38070434e-07
      5.43996492e-08 -9.69676464e-08 -2.30940017e-07 -1.53461781e-06
      -2.70784062e-06 -2.83843588e-06 -5.46935871e-06 -7.08788320e-06
      -6.47969591e-06 -6.11748328e-06 -5.68855194e-06 -6.23996857e-06
      -5.94588710e-06 -5.55121142e-06 -4.91608444e-06 -3.39364146e-06
      -1.51532299e-06 9.77224275e-08 -3.03143622e-07 -2.13128169e-06
      -4.87784700e-06 -6.75421961e-06 -6.68336861e-06 -7.08070820e-06
      -7.60360035e-06 -9.79304968e-06 -9.91343131e-06 -9.71024656e-06
      -8.16063584e-06 -7.86375404e-06 -7.03003388e-06 -8.93993820e-06
      -1.00998595e-05 -9.53266772e-06 -1.23382524e-05 -1.38785790e-05
      -1.43839070e-05 -1.47025557e-05 -1.40124466e-05 -1.56643564e-05
      -1.78330756e-05 -1.70883486e-05 -1.74288907e-05 -1.60772452e-05
      -1.62708930e-05 -1.75137502e-05 -1.73210028e-05 -1.50086053e-05
      -1.36531935e-05 -1.30379949e-05 -1.24020116e-05 -1.39189087e-05
      -1.38644218e-05 -1.33209269e-05 -1.19189190e-05 -1.20523255e-05
      -1.20437617e-05 -1.18402577e-05 -1.32054656e-05 -1.45158820e-05
      -1.37904608e-05 -1.49106272e-05 -1.56265123e-05 -1.59116917e-05
      -1.62509405e-05 -1.58718267e-05 -1.44255582e-05 -1.42707158e-05
      -1.24429444e-05 -1.17911013e-05 -1.44316791e-05 -1.46173379e-05
      -1.54304453e-05 -1.45365684e-05 -1.39077065e-05 -1.23262917e-05
      -1.15101739e-05 -1.17944510e-05 -1.00437146e-05 -1.38663399e-05
      -1.80673778e-05 -2.01679431e-05 -1.95394277e-05 -1.88662289e-05
      -1.91923791e-05 -1.82204803e-05 -1.67676390e-05 -1.61051576e-05
      -1.46939728e-05 -1.46290204e-05 -1.45127624e-05 -1.38401219e-05
      -1.29267501e-05 -1.16449755e-05 -8.86382986e-06 -7.18955425e-06
      -9.03380896e-06 -1.12311618e-05 -1.31442093e-05 -1.24462413e-05
      -1.15623534e-05 -1.30423123e-05 -1.35468626e-05 -1.19555370e-05
      -1.02777640e-05 -9.26948360e-06 -7.84662370e-06 -7.51246262e-06
      -5.89594674e-06 -5.43643182e-06 -6.00491740e-06 -6.61708009e-06
      -6.84762927e-06 -6.60208070e-06 -8.87648184e-06 -1.15518287e-05
      -1.11833424e-05 -1.05010222e-05 -1.03036682e-05 -1.17261643e-05
      -1.06149109e-05 -1.28225583e-05 -1.16032843e-05 -7.93753497e-06
      -5.61531124e-06 -5.21851871e-06 -5.63013873e-06 -8.42042209e-06
      -1.15395678e-05 -1.30881554e-05 -1.25517981e-05 -1.06500820e-05
      -1.01650530e-05 -9.84061171e-06 -9.65184245e-06 -9.09355458e-06
      -8.76837385e-06 -9.71127974e-06 -1.09935490e-05 -1.24662847e-05
      -1.16409701e-05 -4.60392675e-06 -1.34689333e-06 8.03275157e-07
      -1.18205082e-06 -6.43645933e-07 -3.39011820e-07 -3.44135259e-07
      -2.45809929e-06 -6.91197238e-06 -1.02591348e-05 -1.10871379e-05
      -1.23207692e-05 -1.41226492e-05 -1.32864816e-05 -1.36816234e-05
      -1.28003576e-05 -8.59676493e-06 -3.62539140e-06 -2.32198022e-06
      -1.17547870e-06 -7.74885393e-07 8.67050218e-08 -8.97953385e-07
      -3.13374380e-06 -6.39844711e-06 -9.93353115e-06 -1.13556716e-05
      -1.43840334e-05 -1.83932225e-05 -1.89148341e-05 -1.51222730e-05
      -1.02846361e-05 -9.70254041e-06 -9.11830375e-06 -8.74590933e-06
      -9.09092705e-06 -9.39343954e-06 -9.30672377e-06 -7.23376934e-06
      -2.72679767e-06 -1.25842678e-06 -4.47321554e-06 -1.39572103e-05
      -1.82104941e-05 -1.86068937e-05 -1.87224359e-05 -1.78309656e-05
      -1.71169522e-05 -1.81739888e-05 -1.79564195e-05 -1.67512244e-05
      -1.66342797e-05 -1.36098761e-05 -1.28565798e-05 -1.45696677e-05
      -1.54373702e-05 -1.51762761e-05 -1.21423109e-05 -1.07516726e-05
      -1.16911233e-05 -1.16617921e-05 -1.11392055e-05 -1.41257315e-05
      -1.38516034e-05 -1.28530955e-05 -1.32878540e-05 -1.27447574e-05
      -1.23743739e-05 -1.14192544e-05 -9.80250843e-06 -1.07392098e-05
      -9.68440600e-06 -1.09792518e-05 -1.28206866e-05 -1.45953600e-05
      -1.48203899e-05 -1.24634771e-05 -7.14614362e-06 -1.22601296e-06
      4.13267298e-06 6.85188388e-06 5.85639600e-06 1.44590092e-06
      -5.04119771e-06 -1.19043179e-05 -1.57926661e-05 -1.58281582e-05
      -1.72716882e-05 -1.52402936e-05 -1.35204937e-05 -1.28216616e-05
      -1.23109603e-05 -1.17889713e-05 -1.15163184e-05 -1.17675199e-05
      -1.19511615e-05 -8.61741682e-06 -9.93207891e-07 2.63933885e-06
      -1.75609344e-07 -6.10695270e-06 -1.23544032e-05 -1.34079783e-05
      -1.39412741e-05 -1.46995317e-05 -1.31940778e-05 -8.40023131e-06
      -1.02140496e-06 2.29872717e-06 4.33565765e-06 4.31822718e-06
      4.39436872e-06 2.20112088e-06 1.92517632e-06 4.16531793e-06
      5.22575783e-06 4.40127906e-06 -2.37089534e-06 -9.75123749e-06
      -9.68115728e-06 -8.70098302e-06 -9.34954096e-06 -9.67729284e-06
      -7.80298160e-06 -3.37482857e-06 3.56717010e-06 9.26391294e-06
      1.12815751e-05 1.03843113e-05 7.37143637e-06 4.40772510e-06
      -7.85984241e-07 -7.86703367e-06 -1.25929164e-05 -1.29348955e-05
      -1.27970470e-05 -1.20035202e-05 -1.14510931e-05 -1.03442444e-05
      -9.25381210e-06 -1.16945948e-05 -1.13752221e-05 -1.07329370e-05
      -9.99653821e-06 -3.88214630e-06 6.17681735e-07 1.56701810e-06
      -1.39824613e-06 1.23275129e-07 8.55741462e-07 -6.20331434e-07
      -6.12766007e-06 -1.14465720e-05 -1.36746048e-05 -1.40535212e-05
      -1.42490235e-05 -1.42998242e-05 -1.41097062e-05 -1.42336885e-05
      -9.77549917e-06 2.20445963e-06 7.80800019e-06 7.25857944e-06
      6.55803979e-06 4.79472328e-06 4.33756122e-06 4.86614590e-06
      7.62806621e-06 5.96892551e-06 5.47693560e-07 -5.58387683e-06
      -1.39528602e-05 -1.84067885e-05 -1.98873549e-05 -1.46690536e-05
      -8.52575977e-06 -6.87787633e-06 -5.80486039e-06 -5.45199327e-06
      -5.66934796e-06 -5.76388356e-06 -3.90398554e-06 2.12935970e-06
      9.20260027e-06 1.05749496e-05 5.79759308e-06 -6.70055852e-06
      -1.54925801e-05 -1.47919372e-05 -1.56712031e-05 -1.46801858e-05
      -1.35678793e-05 -1.42091494e-05 -1.38692549e-05 -1.22984520e-05
      -8.71944485e-06 -5.61837305e-06 -4.77458707e-06 -6.59254783e-06
      -1.10660976e-05 -1.29269856e-05 -1.12502903e-05 -8.29089458e-06
      -8.94187542e-06 -8.65179300e-06 -9.52798473e-06 -1.09969578e-05
      -1.02710055e-05 -1.13754286e-05 -1.02017375e-05 -7.99201098e-06
      -7.43681403e-06 -7.84607073e-06 -4.77573894e-06 -4.79061919e-06
      -7.29625981e-06 -1.19793522e-05 -1.38234691e-05 -1.61833777e-05
      -1.30384897e-05 -6.71926955e-06 5.97988219e-08 5.27591328e-06
      7.17648390e-06 8.84417477e-06 8.42002009e-06 9.28255577e-06
      7.56950476e-06 1.79715002e-07 -8.77851289e-06 -1.35024420e-05
      -1.19241913e-05 -9.07416688e-06 -7.36063430e-06 -9.21566516e-06
      -1.12922889e-05 -1.17067302e-05 -1.23929512e-05 -1.40797974e-05
      -1.22191714e-05 -4.79838991e-06 3.31711794e-06 3.92199763e-06
      -1.61916614e-06 -8.64190224e-06 -1.40574402e-05 -1.37838133e-05
      -1.50431460e-05 -1.51900658e-05 -1.38007290e-05 -5.04711170e-06
      6.51043956e-06 1.06389625e-05 1.19710676e-05 1.18536018e-05
      1.07797514e-05 1.09205621e-05 1.33724288e-05 1.41731516e-05
      1.15938010e-05 7.78393678e-06 -1.68890995e-06 -9.99546410e-06
      -1.23550444e-05 -1.13330134e-05 -9.31373779e-06 -5.77895116e-06
      1.06578671e-06 1.21533294e-05 2.02096999e-05 2.25658387e-05
      2.01200328e-05 1.67817216e-05 1.34597140e-05 8.80722200e-06
      4.46853210e-06 -2.52046249e-07 -8.53070469e-06 -1.34771999e-05
      -1.39802360e-05 -1.42323534e-05 -1.29030132e-05 -1.19602055e-05
      -1.35410573e-05 -1.36167982e-05 -1.36923154e-05 -1.18956414e-05
      -1.05807658e-05 -5.66053814e-06 7.47585659e-07 2.51131314e-06
      -1.22257870e-06 1.03462480e-06 1.01767830e-06 -2.48648757e-06
      -8.80737389e-06 -1.24557182e-05 -1.30976623e-05 -1.30386115e-05
      -1.33124613e-05 -1.37941533e-05 -1.42893959e-05 -1.28012371e-05
      -6.25857274e-06 4.65854009e-06 6.29435499e-06 2.27929081e-06
      -1.43273735e-06 -3.76906405e-06 -3.28825809e-06 8.53586755e-07
      8.67775270e-06 1.15884122e-05 8.57767918e-06 -1.84407952e-06
      -1.17431564e-05 -1.62929555e-05 -1.65668662e-05 -1.57110899e-05
      -1.04206174e-05 -9.38435278e-06 -1.04883475e-05 -1.08291260e-05
      -9.71611007e-06 -6.08532400e-06 3.18754019e-07 1.00419365e-05
      1.28127140e-05 1.39811527e-05 7.23748371e-06 -6.95069912e-06
      -1.33553285e-05 -1.42950821e-05 -1.37890884e-05 -1.23911841e-05
      -8.42821282e-06 -4.43916497e-06 -7.85941666e-07 4.74576063e-06
      8.39388395e-06 1.02960721e-05 1.11541067e-05 9.36058041e-06
      3.50901450e-06 -3.14160661e-06 -7.73765896e-06 -3.66695440e-06
      -2.98438931e-06 -6.43912881e-06 -9.32360035e-06 -1.04692472e-05
      -1.10348547e-05 -1.35583323e-05 -1.23893151e-05 -1.17390337e-05
      -1.05071858e-05 -6.23384858e-06 9.09293703e-07 1.10446433e-06
      -3.11215422e-06 -1.04356195e-05 -1.44080504e-05 -1.43717334e-05
      -7.68255450e-06 9.97166012e-07 4.24436939e-06 1.19810841e-06
      -3.14285307e-06 -4.11035671e-06 -1.63980508e-06 4.01259467e-06
      8.59657848e-06 8.47266256e-06 -6.31366959e-07 -1.08010890e-05
      -1.13439237e-05 -4.10807115e-06 -1.45232696e-06 -6.22867719e-06
      -1.21362336e-05 -1.39450385e-05 -1.46390494e-05 -1.53531182e-05
      -1.11480113e-05 -1.52590906e-06 4.19300932e-06 3.41578880e-06
      -1.06040079e-06 -9.97741699e-06 -1.61682547e-05 -1.61043808e-05
      -1.60860072e-05 -1.67036978e-05 -1.37587122e-05 -4.17541105e-06
      2.71557337e-06 3.13070200e-06 3.13963187e-06 3.82261169e-06
      3.81875407e-06 6.75305819e-06 1.39286012e-05 1.79369290e-05
      1.18030193e-05 3.88414128e-06 -6.66548476e-06 -1.23069312e-05
      -1.27159992e-05 -1.10685205e-05 -5.45811781e-06 9.81580229e-07
      1.12602365e-05 2.22123999e-05 2.31787835e-05 1.60933469e-05
      8.98058715e-06 5.49926108e-06 6.30410750e-06 8.11436894e-06
      7.73344163e-06 5.36132075e-06 -6.59538671e-07 -1.08647655e-05
      -1.38714413e-05 -1.46735783e-05 -1.44163614e-05 -1.27872099e-05
      -1.49183315e-05 -1.48290328e-05 -1.48395129e-05 -1.37463039e-05
      -1.20866789e-05 -8.29703367e-06 -6.95377082e-07 -4.34338631e-07
      -8.88697002e-07 -6.78238393e-07 -8.08602806e-07 -5.26828899e-06
      -1.07165433e-05 -1.13800470e-05 -1.15827552e-05 -1.30363760e-05
      -1.31570368e-05 -1.29079435e-05 -1.35496257e-05 -1.14481827e-05
      -5.00640726e-06 1.18350658e-06 -7.41848226e-07 -8.40744542e-06
      -1.29837936e-05 -1.24293420e-05 -9.38991343e-06 -1.96753149e-06
      1.07796868e-05 1.75725254e-05 1.59703195e-05 4.64442337e-06
      -8.30688623e-06 -1.23305617e-05 -1.38222767e-05 -1.25329962e-05
      -1.28398269e-05 -1.35459077e-05 -1.27959684e-05 -1.24745065e-05
      -8.70227632e-06 -4.53811117e-06 6.66450978e-06 1.78433638e-05
      1.95655703e-05 1.89668044e-05 8.90748106e-06 -5.27415796e-06
      -1.27844232e-05 -1.61561256e-05 -1.75133173e-05 -1.48168365e-05
      -4.17847332e-06 7.12043266e-06 1.26110854e-05 1.66649534e-05
      1.53421479e-05 1.54247609e-05 1.55098023e-05 1.40716038e-05
      8.86084126e-06 5.19932246e-06 2.17517368e-06 1.52753023e-06
      -7.45331874e-07 -7.93490108e-06 -1.08853446e-05 -1.13653687e-05
      -1.19451406e-05 -1.33068870e-05 -1.33488493e-05 -1.33964932e-05
      -1.11433947e-05 -6.00944077e-06 -3.07442292e-06 -6.76170157e-06
      -1.28902238e-05 -1.61906501e-05 -1.53977817e-05 -1.01104160e-05
      -9.44786450e-07 4.92830759e-06 3.02036892e-06 -6.46036870e-06
      -1.35418659e-05 -1.56873884e-05 -1.34002839e-05 -6.78299057e-06
      2.07177459e-06 7.74886666e-06 4.20388915e-06 -8.73943645e-06
      -1.51995982e-05 -8.90338288e-06 -6.62534467e-06 -1.20451550e-05
      -1.42071804e-05 -5.58459260e-06 -4.68833650e-06 -7.02018224e-06
      -2.57306141e-08 6.46936815e-06 7.04941522e-06 8.53382426e-06
      6.34860544e-06 -5.49266315e-06 -1.55394082e-05 -1.69614686e-05
      -1.66505051e-05 -1.64147514e-05 -1.09221664e-05 -7.17441662e-06
      -6.66173491e-06 -8.71270367e-06 -1.33731228e-05 -1.46166485e-05
      -1.17666468e-05 -1.98023145e-06 1.36906010e-05 1.98277394e-05
      1.61738717e-05 1.09114603e-06 -1.29038317e-05 -1.77551228e-05
      -1.71236788e-05 -1.30945928e-05 -5.44316481e-06 9.93411504e-07
      1.27009898e-05 1.70260828e-05 8.72707096e-06 -2.39691303e-06
      -6.84939960e-06 -5.11850976e-06 -1.94044787e-06 3.64299740e-06
      1.11642657e-05 1.10572209e-05 6.67129734e-06 -4.93860944e-06
      -1.02096928e-05 -1.14231252e-05 -1.07412188e-05 -1.07929027e-05
      -1.15936755e-05 -1.31776987e-05 -1.44205214e-05 -1.29368273e-05
      -1.26664872e-05 -1.16416704e-05 -4.18144191e-06 -3.19016544e-06
      -4.10141320e-06 -3.49496804e-06 -3.56636610e-06 -7.29621615e-06
      -1.25718980e-05 -1.21946769e-05 -1.00505113e-05 -1.21897237e-05
      -1.38503920e-05 -1.38854830e-05 -1.48397849e-05 -1.13007054e-05
      -4.66736174e-06 -3.23795848e-06 -7.34890500e-06 -1.39624972e-05
      -1.35977616e-05 -9.80094319e-06 -6.26605242e-06 -2.36725418e-06
      5.27400698e-06 1.17967720e-05 9.21754690e-06 1.20439518e-06
      -6.93990296e-06 -1.21221356e-05 -1.32636060e-05 -1.48965437e-05
      -1.56933074e-05 -1.69275463e-05 -1.55588714e-05 -1.11392028e-05
      -6.45782484e-06 -4.96331381e-07 1.05582321e-05 1.57279919e-05
      1.48517574e-05 1.03355587e-05 1.20480001e-06 -6.46939998e-06
      -1.07120295e-05 -1.61718744e-05 -1.85609642e-05 -1.56301594e-05
      -2.13407952e-06 8.33632294e-06 1.23846448e-05 9.46823729e-06
      4.25137296e-06 3.78566551e-06 5.15099691e-06 5.38934364e-06
      4.74778062e-06 8.52527410e-06 8.12615508e-06 4.93301422e-06
      -1.84876933e-06 -9.49239529e-06 -1.44494225e-05 -1.54893733e-05
      -1.39658132e-05 -1.45644190e-05 -1.72791752e-05 -1.66477603e-05
      -1.27205849e-05 -7.29258772e-06 -6.87911825e-06 -1.00574480e-05
      -1.40438206e-05 -1.52735556e-05 -1.20812419e-05 -4.12605550e-06
      4.65209223e-06 6.65464722e-06 -2.27693590e-06 -1.36903664e-05
      -1.79289600e-05 -1.62045471e-05 -1.44304204e-05 -1.24828821e-05
      -4.56380303e-06 2.21390223e-06 2.57923671e-06 -8.69043106e-06
      -1.55889775e-05 -8.16435022e-06 -7.44545696e-06 -1.28758529e-05
      -1.08969189e-05 2.89461059e-06 6.49233607e-06 3.84991972e-06
      6.93406946e-06 9.45157262e-06 1.03359853e-05 1.36518329e-05
      1.06714069e-05 2.75051200e-08 -1.67019170e-05 -1.98162070e-05
      -1.98876423e-05 -1.84175860e-05 -1.40791635e-05 -1.25000925e-05
      -1.36631279e-05 -2.08019355e-05 -2.24551659e-05 -2.22220569e-05
      -1.70678613e-05 -4.76673085e-06 1.31287934e-05 1.86846373e-05
      1.51134545e-05 -1.50077585e-06 -1.58640723e-05 -1.85917834e-05
      -1.77355123e-05 -1.21613793e-05 -6.80899484e-06 2.59461422e-06
      1.25761835e-05 9.71167628e-06 -3.84237364e-06 -1.41092751e-05
      -1.60942163e-05 -1.23239324e-05 -3.15378793e-06 9.00717964e-07
      8.42059035e-06 1.29319751e-05 8.03721468e-06 -4.59364674e-06
      -1.45710155e-05 -1.53213823e-05 -1.41595528e-05 -1.37824281e-05
      -1.38981877e-05 -1.54960871e-05 -1.54173686e-05 -1.54528952e-05
      -1.44913329e-05 -1.31163724e-05 -6.32712226e-06 -4.34270623e-06
      -4.71160502e-06 -4.99857697e-06 -6.54495307e-06 -1.10915489e-05
      -1.55890939e-05 -1.49201996e-05 -1.41879427e-05 -1.35143664e-05
      -1.41337750e-05 -1.44656569e-05 -1.50704955e-05 -1.45563090e-05
      -9.13641634e-06 -6.57671626e-06 -8.03076000e-06 -1.06791640e-05
      -7.95624146e-06 -5.48531989e-06 -2.91559854e-06 -2.06686377e-06
      2.50371113e-06 7.79262064e-06 7.34138621e-06 9.59682325e-07
      -4.42061855e-06 -1.00308243e-05 -1.45697859e-05 -1.76714166e-05
      -1.85133649e-05 -1.80915122e-05 -1.41530754e-05 -9.46508044e-06
      -4.21795676e-06 6.24189488e-06 1.15582452e-05 1.00155730e-05
      4.61000946e-06 2.70261523e-07 -3.11078520e-06 -7.64529887e-06
      -9.71563895e-06 -1.59130614e-05 -1.89374259e-05 -1.39174081e-05
      1.57519048e-06 1.04848887e-05 5.85457974e-06 -1.39638030e-06
      -7.32723947e-06 -8.47294086e-06 -4.97047040e-06 -7.46408523e-06
      -5.59497630e-06 5.55431552e-06 1.05436911e-05 1.12828457e-05
      -3.53771185e-07 -1.20677532e-05 -1.49248081e-05 -1.55005473e-05
      -1.52996363e-05 -1.71402207e-05 -1.82821750e-05 -1.60179352e-05
      -9.65748677e-06 -7.25854898e-06 -1.00855932e-05 -1.48357994e-05
      -1.64817284e-05 -1.66160207e-05 -1.24780572e-05 -4.17209139e-06
      3.53783435e-06 6.08040000e-06 -4.44065381e-06 -1.47652900e-05
      -1.63116129e-05 -1.32911991e-05 -1.49151047e-05 -1.53486635e-05
      -8.32958995e-06 -6.21726599e-07 -1.01653302e-06 -8.26835367e-06
      -1.51495378e-05 -9.75385592e-06 -7.37308983e-06 -1.26794166e-05
      -1.29656801e-05 -1.24261817e-07 4.48614946e-06 7.37260916e-06
      5.92532024e-06 5.74723572e-06 1.24301469e-05 1.45012646e-05
      8.71404154e-06 -1.65106871e-06 -1.53128476e-05 -1.90285973e-05
      -1.86231664e-05 -1.54670615e-05 -9.95190203e-06 -8.64773574e-06
      -1.28699648e-05 -1.89998736e-05 -1.90867650e-05 -1.90767951e-05
      -1.18577718e-05 9.87834483e-07 1.13293818e-05 1.55502039e-05
      1.08608720e-05 -3.07028358e-06 -1.73846547e-05 -1.98922153e-05
      -1.87998394e-05 -1.18793187e-05 -5.93601271e-06 1.87409671e-06
      8.41242309e-06 5.89988349e-06 -7.06609990e-06 -1.60383679e-05
      -1.61112221e-05 -1.43317575e-05 -6.32811225e-06 -1.62878655e-06
      6.16732359e-06 1.37102115e-05 8.35576975e-06 -5.24861298e-06
      -1.40572056e-05 -1.50959740e-05 -1.71864576e-05 -1.71848769e-05
      -1.53969286e-05 -1.52323928e-05 -1.54039608e-05 -1.54784066e-05
      -1.55021135e-05 -1.56829174e-05 -7.64522611e-06 -3.73373769e-06
      -2.58246132e-06 -3.90817240e-06 -6.86271733e-06 -1.13846399e-05
      -1.49820553e-05 -1.46561688e-05 -1.42126974e-05 -1.36635426e-05
      -1.43981561e-05 -1.48150893e-05 -1.55073667e-05 -1.65399779e-05
      -1.49716243e-05 -1.23839345e-05 -1.07176274e-05 -7.35945241e-06
      -5.54276312e-06 -3.54143208e-06 -3.80217898e-06 -5.00926217e-06
      -4.90514367e-06 -2.75706111e-06 -5.84631721e-07 -3.16817875e-07
      -5.64445327e-06 -9.56954136e-06 -1.56957758e-05 -1.97502050e-05
      -2.05733704e-05 -1.95446337e-05 -1.44090018e-05 -8.96591609e-06
      -3.95856290e-07 7.85285192e-06 5.95671145e-06 1.18169567e-06
      -2.67191399e-06 -4.22306402e-06 -3.43559009e-06 -5.90508444e-06
      -7.16961904e-06 -1.23097252e-05 -1.51028626e-05 -8.48482614e-06
      6.75733827e-06 1.24004027e-05 1.45253284e-06 -9.49728656e-06
      -1.45244658e-05 -1.28610209e-05 -7.83871656e-06 -1.12760054e-05
      -1.33470085e-05 -1.98116891e-06 8.64698632e-06 1.06839634e-05
      1.63859011e-06 -1.02952617e-05 -1.48185109e-05 -1.56632759e-05
      -1.58329822e-05 -1.61114549e-05 -1.59376250e-05 -1.18276703e-05
      -7.18058072e-06 -5.76517823e-06 -1.10204846e-05 -1.65084348e-05
      -1.63979748e-05 -1.55737798e-05 -1.38250243e-05 -7.72101885e-06
      1.09054497e-06 3.22944720e-06 -8.26801352e-06 -1.80347433e-05
      -1.86219695e-05 -1.56372953e-05 -1.65015426e-05 -1.63577897e-05
      -8.74645684e-06 1.39952544e-06 2.58151476e-06 -7.08866037e-06
      -1.53018809e-05 -1.02943623e-05 -8.26853284e-06 -1.24790959e-05
      -1.85838780e-05 -1.18766984e-05 -2.33122728e-06 3.01881710e-06
      1.36886410e-06 1.06952155e-06 9.93817139e-06 1.41751589e-05
      6.71713724e-06 -8.08879486e-06 -1.80722291e-05 -1.88352478e-05
      -1.87273799e-05 -1.37951383e-05 -8.18933768e-06 -7.60340890e-06
      -1.33865606e-05 -1.75893929e-05 -1.76161157e-05 -1.57943286e-05
      -3.27670591e-06 2.17782531e-06 4.80660674e-06 8.92791286e-06
      4.85561941e-06 -4.11538485e-06 -1.60714226e-05 -1.82487456e-05
      -1.73214685e-05 -9.80791447e-06 -4.16156354e-06 2.37452764e-06
      7.64326160e-06 6.04670549e-06 -5.52013853e-06 -1.41347555e-05
      -1.49533389e-05 -1.50877831e-05 -1.18660773e-05 -4.85201508e-06
      5.85639873e-06 1.41823884e-05 8.48783384e-06 -6.11680252e-06
      -1.46650455e-05 -1.56392034e-05 -1.64005778e-05 -1.52211396e-05
      -1.59283809e-05 -1.78539012e-05 -1.72316013e-05 -1.72172331e-05
      -1.67129983e-05 -1.56413680e-05 -9.74670820e-06 -4.87048419e-06
      -3.72320255e-06 -4.80525932e-06 -8.84831479e-06 -1.29603468e-05
      -1.32018486e-05 -1.25094875e-05 -1.13653805e-05 -1.12690077e-05
      -1.33712292e-05 -1.53505134e-05 -1.50854075e-05 -1.56115839e-05
      -1.47851542e-05 -1.39084877e-05 -9.62832382e-06 -4.76193418e-06
      -3.63719141e-06 -4.02050318e-06 -5.63156982e-06 -6.69401970e-06
      -6.65766902e-06 -6.24165477e-06 -6.35442939e-06 -4.38865163e-06
      -5.33298953e-06 -8.44180431e-06 -1.43577754e-05 -1.87951191e-05
      -1.97844220e-05 -1.89366347e-05 -1.25644519e-05 -4.53758958e-06
      6.15656472e-06 7.45296347e-06 4.14896874e-07 -2.71842487e-06
      -4.92160279e-06 -4.08570440e-06 -4.68379494e-06 -7.90310969e-06
      -8.78811443e-06 -1.28623315e-05 -1.58425137e-05 -7.96421682e-06
      9.56268195e-06 1.48853969e-05 4.58656217e-07 -1.07029864e-05
      -1.48064200e-05 -9.91248271e-06 -5.38867835e-06 -8.92139087e-06
      -1.18097132e-05 -2.38541497e-06 8.30151566e-06 1.01138266e-05
      -2.87810138e-07 -1.26153773e-05 -1.50908027e-05 -1.55882535e-05
      -1.67315629e-05 -1.75485184e-05 -1.46819839e-05 -7.54973917e-06
      -6.10844199e-06 -9.26531811e-06 -1.35022392e-05 -1.45889153e-05
      -1.59074480e-05 -1.64966023e-05 -1.54007139e-05 -9.00102168e-06
      -3.13270357e-06 -1.34869288e-06 -9.29380803e-06 -1.66327518e-05
      -1.92815842e-05 -1.72209566e-05 -1.59123865e-05 -1.47816763e-05
      -5.30028228e-06 3.74378533e-06 2.94935921e-06 -8.75773549e-06
      -1.29165755e-05 -7.01999534e-06 -5.87164641e-06 -1.13941314e-05
      -1.79190047e-05 -1.30319131e-05 4.65029586e-07 6.82672953e-06
      4.50232665e-06 3.04498417e-06 9.89107957e-06 1.47316450e-05
      4.50610287e-06 -1.10566543e-05 -1.85739900e-05 -1.99001661e-05
      -1.92386233e-05 -1.30956132e-05 -6.54707537e-06 -6.49428966e-06
      -1.20253962e-05 -2.07989287e-05 -1.85105800e-05 -8.82073527e-06
      8.13852125e-07 3.00461579e-07 -2.87970374e-06 8.73331629e-08
      3.80503820e-07 -6.46783701e-06 -1.43983316e-05 -1.71419724e-05
      -1.59463652e-05 -9.05841262e-06 -3.52953089e-06 1.00938360e-06
      6.67530412e-06 9.02391457e-06 2.33662877e-06 -1.02295135e-05
      -1.70193307e-05 -1.70884177e-05 -1.59451120e-05 -7.26877533e-06
      3.49837569e-06 9.06934383e-06 2.53322560e-06 -1.00049720e-05
      -1.67180915e-05 -1.75435725e-05 -1.64508092e-05 -1.56817787e-05
      -1.65799865e-05 -1.71687516e-05 -1.80005864e-05 -1.99064143e-05
      -1.89412513e-05 -1.72754790e-05 -1.16771871e-05 -5.04833679e-06
      -5.89273850e-06 -6.98949225e-06 -9.89113960e-06 -1.44692694e-05
      -1.43401485e-05 -1.25294428e-05 -1.02330150e-05 -9.39303027e-06
      -1.14831737e-05 -1.32515170e-05 -1.25995139e-05 -1.41267401e-05
      -1.49986427e-05 -1.53589281e-05 -1.01372061e-05 -5.73737270e-06
      -2.93731978e-06 -4.19048865e-06 -6.71001635e-06 -4.72658485e-06
      1.11197937e-06 -4.78744596e-07 -4.72882039e-06 -5.84877989e-06
      -4.59717194e-06 -6.31432704e-06 -1.38611431e-05 -1.68136212e-05
      -1.61180051e-05 -1.42221797e-05 -5.61973684e-06 5.90521495e-06
      1.34580496e-05 7.23853645e-06 -3.21104551e-07 -3.82502913e-06
      -2.48509718e-06 -3.38075597e-06 -8.83363100e-06 -1.39895301e-05
      -1.50762098e-05 -1.71674146e-05 -1.65390793e-05 -8.05237414e-06
      9.77402942e-06 1.75130517e-05 5.01259228e-06 -7.22446157e-06
      -1.32280411e-05 -9.74382419e-06 -2.72625516e-06 -3.80365805e-06
      -2.53009716e-06 3.80109850e-06 7.61393585e-06 7.37316759e-06
      -1.46628611e-06 -1.14682825e-05 -1.77727015e-05 -1.95734974e-05
      -2.00293343e-05 -1.77971160e-05 -1.22636220e-05 -6.67646418e-06
      -6.82895325e-06 -1.10687406e-05 -1.46307129e-05 -1.42360550e-05
      -1.25768966e-05 -1.28749853e-05 -1.25314864e-05 -5.69063150e-06
      3.14060856e-07 3.41771192e-06 -1.56253043e-06 -6.93234733e-06
      -1.04356059e-05 -1.21122885e-05 -1.26638033e-05 -1.07634796e-05
      -1.05454330e-06 6.79229379e-06 2.43934505e-06 -1.11697691e-05
      -1.59171523e-05 -8.74276520e-06 -6.19531738e-06 -1.05102263e-05
      -1.58245421e-05 -1.28646661e-05 -1.20124355e-06 6.10460756e-06
      2.86932573e-06 1.12677718e-07 8.53309484e-06 1.33274880e-05
      1.64082883e-06 -9.81614630e-06 -1.58937983e-05 -1.60416221e-05
      -1.68882489e-05 -1.42112904e-05 -9.41226062e-06 -1.09043986e-05
      -1.58834482e-05 -2.30071710e-05 -1.74931665e-05 -6.25053190e-06
      -2.16975604e-06 -4.35785523e-06 -6.37902667e-06 4.87304249e-07
      5.36509197e-06 -3.16285013e-06 -1.34118418e-05 -1.61033950e-05
      -1.50671276e-05 -9.87027670e-06 -3.45024409e-06 -9.91357865e-07
      2.55740019e-06 6.68905886e-06 5.29410318e-06 -3.72851491e-06
      -8.84130714e-06 -1.04815181e-05 -1.02167496e-05 -4.63857219e-07
      6.28464932e-06 4.72519150e-06 -4.96175562e-06 -1.33869762e-05
      -1.71950505e-05 -1.85252848e-05 -1.69939667e-05 -1.52964549e-05
      -1.41589398e-05 -1.46241919e-05 -1.53821366e-05 -1.57388222e-05
      -1.59829433e-05 -1.65072888e-05 -1.04754799e-05 -3.19636092e-06
      -3.76506409e-06 -5.58919373e-06 -8.30806584e-06 -1.11442823e-05
      -1.17834597e-05 -1.14469976e-05 -1.08561298e-05 -1.03027387e-05
      -1.02579424e-05 -1.24387871e-05 -1.22522179e-05 -1.18154931e-05
      -1.17676555e-05 -1.30081062e-05 -8.00044199e-06 -4.29120564e-06
      -2.34190543e-06 -6.15186900e-06 -5.02186094e-06 8.90087392e-07
      5.71389091e-06 4.36972596e-06 -1.62461026e-06 -5.06450715e-06
      -4.81991401e-06 -6.38256643e-06 -1.40117718e-05 -1.57191080e-05
      -1.54232348e-05 -1.25590295e-05 -2.06980076e-06 1.13602273e-05
      1.29472173e-05 4.19683101e-06 -2.45613319e-06 -2.00907948e-06
      1.85112663e-06 3.85225303e-06 -6.75212686e-06 -1.59148713e-05
      -1.70897129e-05 -1.70150106e-05 -1.73076878e-05 -1.08491440e-05
      7.69418148e-06 1.80240622e-05 8.24876679e-06 -6.47249726e-06
      -1.43431762e-05 -9.70569818e-06 -4.54451629e-06 -4.08583765e-06
      -6.75619219e-07 5.05507705e-06 6.42134410e-06 3.07056212e-06
      -4.66786923e-06 -1.33607391e-05 -1.69776558e-05 -1.74218876e-05
      -1.72840773e-05 -1.31307315e-05 -7.06325136e-06 -6.74154489e-06
      -6.70915460e-06 -1.04971095e-05 -1.20030218e-05 -1.17257605e-05
      -1.04999599e-05 -1.06773150e-05 -9.13525218e-06 -3.64295465e-06
      -9.42432266e-08 1.49696280e-06 -5.94091318e-07 -2.44228295e-06
      -3.83157931e-06 -3.79295739e-06 -4.89271633e-06 -4.75277830e-06
      1.74851630e-06 5.71198871e-06 -3.42705812e-06 -1.63235309e-05
      -1.80081643e-05 -1.00002071e-05 -8.88319028e-06 -1.26181121e-05
      -1.62869455e-05 -1.03987595e-05 -2.58608270e-06 4.00753561e-06
      6.72364365e-07 5.51671747e-07 1.03373268e-05 1.19057759e-05
      4.00422891e-07 -9.11731331e-06 -1.59677074e-05 -1.66678383e-05
      -1.61698335e-05 -1.37684665e-05 -6.82481505e-06 -7.25241807e-06
      -1.28663532e-05 -1.90025112e-05 -1.16480041e-05 -4.44886291e-06
      -5.12258066e-06 -8.51362893e-06 -9.07702542e-06 2.75180525e-07
      5.73517673e-06 -2.68147369e-06 -1.46538441e-05 -1.64493340e-05
      -1.62311189e-05 -1.22544443e-05 -2.87850730e-06 -1.93034703e-06
      -1.17651064e-06 4.92502431e-06 1.01160613e-05 7.73305874e-06
      3.14573390e-06 2.10692360e-06 3.06292441e-06 5.40581595e-06
      5.51812400e-06 -1.47436879e-06 -1.36859071e-05 -1.50112683e-05
      -1.52548519e-05 -1.53104302e-05 -1.40971415e-05 -1.20360291e-05
      -1.17089285e-05 -1.34266984e-05 -1.36702974e-05 -1.25375063e-05
      -1.33096028e-05 -1.37270954e-05 -9.35606295e-06 -3.33110484e-06
      -3.13229361e-06 -3.58924376e-06 -4.81847110e-06 -6.49782851e-06
      -7.75933768e-06 -8.99232145e-06 -8.91850141e-06 -9.68668974e-06
      -1.01185042e-05 -1.11236113e-05 -1.30444232e-05 -1.26232935e-05
      -1.27659760e-05 -1.12943671e-05 -4.86432600e-06 -1.93912888e-06
      -3.71309397e-06 -9.29868474e-06 -4.47696993e-06 2.55994109e-06
      4.84527436e-06 5.37769620e-06 2.46896047e-06 -2.99887574e-06
      -6.15945100e-06 -1.14369868e-05 -1.75183122e-05 -1.90869687e-05
      -1.77017373e-05 -1.28828333e-05 -1.57726549e-06 5.37754795e-06
      1.65415111e-06 -6.62951288e-06 -8.73517001e-06 -4.63258402e-06
      2.76518858e-06 6.16229727e-06 -1.33164599e-06 -1.30713279e-05
      -1.71461816e-05 -1.60550662e-05 -1.66761183e-05 -1.22706415e-05
      6.24180211e-06 1.67722192e-05 1.03331413e-05 -2.42971396e-06
      -1.21203693e-05 -9.80827372e-06 -4.53999019e-06 -4.50456264e-06
      -2.92873801e-06 -2.98599474e-07 1.85643145e-07 -1.01714784e-06
      -4.97875135e-06 -1.07572332e-05 -1.37402876e-05 -1.31706802e-05
      -1.23921491e-05 -7.65130244e-06 -3.76343451e-06 -4.60840602e-06
      -4.09538961e-06 -3.51362610e-06 -3.64574021e-06 -5.81173390e-06
      -6.75628735e-06 -1.06035095e-05 -1.12837433e-05 -6.90740808e-06
      -4.04824596e-06 -3.29396767e-06 -3.44152295e-06 -2.66009056e-06
      -1.33256572e-06 -1.44638250e-06 -1.45072261e-06 -1.25080612e-06
      4.21236609e-06 4.86542740e-06 -4.75526349e-06 -1.60988711e-05
      -1.61952921e-05 -8.22904985e-06 -5.72522322e-06 -9.62338345e-06
      -1.18986682e-05 -6.26399196e-06 -5.09612573e-06 -3.31924502e-06
      -3.69732220e-06 -1.88838328e-07 1.04242245e-05 8.92057597e-06
      -5.36276275e-07 -9.06593050e-06 -1.65407055e-05 -1.75110617e-05
      -1.66019054e-05 -1.57889881e-05 -1.09408829e-05 -7.71649502e-06
      -9.85593670e-06 -1.05459803e-05 -9.18792648e-06 -9.81979792e-06
      -1.44187861e-05 -1.67867565e-05 -1.52323964e-05 -3.63282038e-06
      3.43742227e-06 -1.54968109e-06 -1.08751892e-05 -1.81824380e-05
      -1.80938114e-05 -1.39313388e-05 -6.17951719e-06 -2.83825602e-06
      -5.05258583e-07 9.63407365e-06 1.25842471e-05 1.00758916e-05
      8.60843375e-06 7.08258449e-06 7.10416816e-06 7.86590590e-06
      5.85589851e-06 -2.19361823e-06 -1.22917036e-05 -1.41789424e-05
      -1.38739579e-05 -1.30308417e-05 -1.21696767e-05 -1.01154010e-05
      -9.11832194e-06 -1.10496594e-05 -1.19119641e-05 -1.21452840e-05
      -1.18338739e-05 -1.19578508e-05 -8.77317325e-06 4.61054640e-07
      -2.72444754e-06 -3.37209622e-06 -5.56401528e-06 -7.31571254e-06
      -7.75615172e-06 -8.82287804e-06 -7.98297424e-06 -6.97722589e-06
      -7.30671445e-06 -8.46294279e-06 -1.15913335e-05 -1.10853734e-05
      -1.24866992e-05 -1.21189050e-05 -5.74583737e-06 -2.67354608e-06
      -4.54377550e-06 -6.44638476e-06 -1.70834721e-06 2.27582836e-06
      3.09150823e-06 3.90970945e-06 5.05688786e-06 4.41786483e-07
      -8.94894492e-06 -1.63583682e-05 -1.99860915e-05 -1.98095004e-05
      -1.91390809e-05 -1.04962128e-05 7.18346996e-07 3.47398873e-06
      -7.06471110e-06 -1.48751806e-05 -1.47575074e-05 -9.55229916e-06
      3.90968944e-06 8.12568760e-06 5.39377197e-07 -1.19018496e-05
      -1.74953111e-05 -1.70472449e-05 -1.70408330e-05 -1.23537548e-05
      7.43859289e-07 1.00039333e-05 6.95123754e-06 2.16422768e-06
      -4.73307955e-06 -2.76806190e-06 2.82898759e-06 -1.54976831e-07
      -3.85871454e-06 -7.12657629e-06 -8.62412526e-06 -4.88567957e-06
      -6.03409171e-06 -1.10913215e-05 -1.28127967e-05 -1.14586228e-05
      -6.75077763e-06 -2.64586720e-06 -1.51574432e-06 -2.12681653e-06
      -2.63667880e-06 -2.54425777e-06 -3.47173523e-06 -3.90323021e-06
      -4.64287814e-06 -8.16278953e-06 -1.24725502e-05 -1.05375830e-05
      -6.49990488e-06 -1.74678246e-06 -3.79012567e-06 -7.61584442e-06
      -8.92819662e-06 -9.69818848e-06 -9.09667142e-06 -6.12179792e-06
      2.01703642e-06 6.45214459e-06 -8.40110715e-07 -1.42699864e-05
      -1.60809832e-05 -7.89087790e-06 -5.53785549e-06 -4.64170489e-06
      -2.15926070e-06 -1.17492925e-06 -9.17184116e-06 -1.28680531e-05
      -9.32817875e-06 -3.61291018e-06 5.20656340e-06 2.33149080e-06
      -5.36865036e-06 -1.14626728e-05 -1.75389796e-05 -1.67782164e-05
      -1.62150664e-05 -1.53604415e-05 -1.46321318e-05 -9.67839605e-06
      -6.48608147e-06 -4.61574729e-07 -2.09139716e-06 -8.70038184e-06
      -1.60354357e-05 -1.91603322e-05 -2.12993145e-05 -1.14634004e-05
      -8.89486159e-07 -5.96510699e-06 -1.40041229e-05 -1.95233079e-05
      -1.91304134e-05 -1.80497264e-05 -1.28615629e-05 -3.73996227e-06
      6.95954850e-06 1.61529060e-05 1.52119765e-05 1.03442453e-05
      4.26871475e-06 2.00131439e-07 -2.29139187e-06 9.83844188e-07
      4.09238373e-06 9.14695192e-07 -6.45321143e-06 -1.50661599e-05
      -1.56219448e-05 -1.47526816e-05 -1.37949255e-05 -1.03181465e-05
      -6.89726448e-06 -9.51227503e-06 -1.12541147e-05 -1.20107688e-05
      -1.11682039e-05 -1.08686527e-05 -8.31631041e-06 8.12437634e-07
      -3.42698490e-06 -6.16224588e-06 -9.39627262e-06 -1.09559414e-05
      -1.00557918e-05 -1.11594318e-05 -9.66912557e-06 -8.22099992e-06
      -8.28016073e-06 -7.16571230e-06 -1.14374807e-05 -1.10908895e-05
      -1.30014769e-05 -1.33923286e-05 -7.29308476e-06 -5.69377426e-06
      -4.07253674e-06 -2.39176501e-07 -8.94215532e-07 -3.21951620e-06
      -5.18302795e-06 -1.11880604e-06 3.93927758e-06 -1.44716648e-06
      -1.28330412e-05 -1.90887331e-05 -1.96619585e-05 -2.14954798e-05
      -2.01130188e-05 -1.04606606e-05 -2.41229714e-07 -1.69867383e-06
      -8.42787904e-06 -1.25450379e-05 -1.39797694e-05 -1.18217013e-05
      -9.78229586e-09 4.69333827e-06 -9.95583150e-07 -1.25698571e-05
      -1.88637005e-05 -1.70643652e-05 -1.73080898e-05 -1.45114182e-05
      -5.20497269e-06 5.09758195e-07 -6.33525929e-07 8.29487931e-07
      1.54963448e-06 6.50323136e-06 9.68606128e-06 2.79166534e-06
      -8.54506197e-06 -1.46513594e-05 -1.37156267e-05 -6.27640338e-06
      -5.55688848e-06 -1.19224205e-05 -1.52136663e-05 -1.20506065e-05
      -6.04953675e-06 -3.71879469e-06 -3.98996553e-06 -5.22482560e-06
      -7.87140652e-06 -7.36037964e-06 -5.31728074e-06 -4.09180439e-06
      -4.32547722e-06 -6.14866485e-06 -1.02207878e-05 -8.10150050e-06
      1.71984325e-07 2.44931812e-06 -6.28133057e-06 -1.41964319e-05
      -1.75320529e-05 -1.81182149e-05 -1.74553243e-05 -1.39277281e-05
      -4.15000659e-06 3.63404729e-06 -8.99424748e-08 -1.25610050e-05
      -1.62978540e-05 -9.70295696e-06 -6.61978311e-06 -2.98867872e-06
      2.73163482e-06 2.50849484e-06 -1.05922454e-05 -1.65747388e-05
      -1.01928863e-05 -3.03372758e-06 4.53306848e-06 -8.88616256e-08
      -6.89834997e-06 -1.32453533e-05 -2.11649512e-05 -2.22702020e-05
      -2.15231812e-05 -2.08561723e-05 -1.98123689e-05 -1.33342965e-05
      -5.19151672e-06 -5.59325599e-07 -2.42909709e-06 -9.16812587e-06
      -1.17828376e-05 -1.38321275e-05 -1.96895344e-05 -1.28124229e-05
      -3.05219896e-06 -4.40679560e-06 -1.05537201e-05 -1.71860484e-05
      -1.93744727e-05 -1.83467346e-05 -1.69026698e-05 -3.62054675e-06
      1.31129473e-05 1.69684881e-05 1.18297248e-05 4.21262075e-06
      -4.70238433e-07 -3.11158374e-06 -9.89682121e-06 -8.12389499e-06
      7.04638808e-07 5.27372731e-06 1.29616944e-06 -8.60179534e-06
      -1.49677608e-05 -1.49878242e-05 -1.31577754e-05 -1.05489480e-05
      -6.43438943e-06 -5.77003266e-06 -8.87418446e-06 -1.02267777e-05
      -8.71535212e-06 -8.29059900e-06 -7.48235425e-06 8.77464856e-07
      -4.30762248e-06 -8.55841245e-06 -1.30399621e-05 -1.28811926e-05
      -9.78343087e-06 -9.96759991e-06 -1.02732138e-05 -9.98033738e-06
      -9.02489410e-06 -8.20699188e-06 -9.78657954e-06 -1.29381915e-05
      -1.42618028e-05 -1.46312459e-05 -1.27719904e-05 -8.63725745e-06
      -3.09922530e-06 9.23148320e-07 9.18514047e-07 -3.63297272e-06
      -7.92551509e-06 -3.67724783e-06 2.52914356e-06 -4.08107599e-06
      -1.39744097e-05 -1.89308357e-05 -2.02004667e-05 -2.13077910e-05
      -1.72009313e-05 -7.39070583e-06 -1.81643486e-06 -5.92791821e-06
      -8.82551831e-06 -9.38474113e-06 -1.06037051e-05 -9.69254779e-06
      -3.02466583e-06 2.08898405e-06 -3.52910934e-06 -1.40708880e-05
      -2.19880512e-05 -2.17843135e-05 -2.06718450e-05 -1.62117940e-05
      -7.73631109e-06 -4.58329623e-06 -6.22920925e-06 -6.21386789e-06
      4.01072924e-07 8.73775298e-06 1.19119304e-05 -4.08911319e-07
      -1.44697942e-05 -1.81583673e-05 -1.72072341e-05 -8.35281207e-06
      -6.56058182e-06 -1.27251988e-05 -1.62518118e-05 -1.06288553e-05
      -5.10953851e-06 -5.42676980e-06 -9.32879448e-06 -1.21988078e-05
      -1.29291739e-05 -1.23630334e-05 -1.11139361e-05 -7.66477388e-06
      -5.05534808e-06 -5.28495138e-06 -8.81001051e-06 -6.12830399e-06
      1.82177689e-06 1.08675670e-06 -1.02465629e-05 -1.71967495e-05
      -1.92737771e-05 -1.82876393e-05 -1.77461025e-05 -1.73352000e-05
      -7.52025198e-06 3.75873969e-06 2.32783987e-06 -1.03201237e-05
      -1.73268672e-05 -1.22212186e-05 -7.92297487e-06 -2.39563497e-06
      1.75737100e-07 -3.30327271e-06 -1.37129682e-05 -1.57210943e-05
      -8.45466184e-06 -1.84376859e-06 5.96905147e-06 3.71476131e-06
      -4.08165806e-06 -1.09427510e-05 -1.60711861e-05 -1.93119340e-05
      -2.09425234e-05 -2.18616187e-05 -2.30091191e-05 -1.86072029e-05
      -7.62777063e-06 -4.02143996e-06 -6.64492427e-06 -1.09287166e-05
      -1.19977285e-05 -1.51817894e-05 -1.94814365e-05 -1.35630025e-05
      -3.97535314e-06 -2.68331246e-06 -9.21126502e-06 -1.70530529e-05
      -1.95194461e-05 -1.87978549e-05 -1.58330331e-05 -3.31136403e-06
      1.07398628e-05 1.23988639e-05 2.41008183e-06 -3.48277717e-06
      -4.20854440e-06 -5.86907026e-06 -1.29239215e-05 -1.41345818e-05
      -4.83641134e-06 6.57743840e-06 8.10995789e-06 -2.29629177e-06
      -1.19285378e-05 -1.36831895e-05 -1.27560279e-05 -1.02522772e-05
      -7.88484704e-06 -5.11145527e-06 -5.08297853e-06 -5.13887471e-06
      -4.49685012e-06 -4.02595151e-06 -3.44933346e-06 1.82919666e-06
      -5.12294946e-06 -9.46266937e-06 -1.47052106e-05 -1.41014461e-05
      -1.18142343e-05 -1.03201037e-05 -1.20643954e-05 -1.28672127e-05
      -1.17660074e-05 -1.15682933e-05 -1.29816808e-05 -1.54689951e-05
      -1.40091779e-05 -1.43139969e-05 -1.45647437e-05 -8.81430969e-06
      5.50206423e-08 1.30406238e-06 -1.41674377e-06 -6.96038842e-06
      -7.34366176e-06 -2.17902925e-06 3.07906930e-06 -4.75063052e-06
      -1.36253539e-05 -1.78343307e-05 -1.88351805e-05 -1.68816114e-05
      -8.20936657e-06 -4.38034385e-06 -3.52805137e-06 -6.03710259e-06
      -5.95930305e-06 -4.88005116e-06 -4.94325241e-06 -5.65750270e-06
      -2.07189601e-06 9.48199499e-07 -3.24035159e-06 -1.21607482e-05
      -2.16618573e-05 -2.31718495e-05 -2.22161052e-05 -1.68162314e-05
      -8.30555200e-06 -1.02911390e-05 -1.35446526e-05 -1.06748412e-05
      -1.57601403e-06 1.02569493e-05 1.18166436e-05 -5.10231075e-06
      -1.76215253e-05 -1.93337164e-05 -1.68531751e-05 -1.07848691e-05
      -1.23026603e-05 -1.78025748e-05 -1.78509235e-05 -1.24994422e-05
      -7.39215739e-06 -8.73113186e-06 -1.35457340e-05 -1.70175663e-05
      -1.57547329e-05 -1.48221179e-05 -1.62849465e-05 -1.26368650e-05
      -4.72679858e-06 -3.43874171e-06 -4.95397671e-06 -3.16433125e-06
      4.25939834e-06 1.26560076e-06 -1.23684395e-05 -1.88809336e-05
      -1.87586065e-05 -1.87832229e-05 -1.92400021e-05 -1.91272866e-05
      -1.19075330e-05 -1.17483140e-07 2.12949976e-06 -8.34363709e-06
      -1.55472899e-05 -1.09478142e-05 -4.52038603e-06 -4.09538671e-07
      -2.83822806e-06 -5.44742488e-06 -1.21863632e-05 -1.29203700e-05
      -5.81888071e-06 2.99198950e-06 7.76395427e-06 1.24966255e-06
      -5.78003710e-06 -1.25089200e-05 -1.56624628e-05 -1.48129566e-05
      -1.64924750e-05 -1.78291211e-05 -1.54909940e-05 -8.56399583e-06
      -2.45279011e-06 -1.93193569e-06 -4.99846010e-06 -7.15334363e-06
      -9.72251473e-06 -1.45490139e-05 -1.60791205e-05 -1.02266158e-05
      -1.17224795e-06 9.49675211e-07 -4.40898930e-06 -1.32838977e-05
      -1.78401333e-05 -1.83318443e-05 -1.55092057e-05 -1.15623686e-06
      8.28728844e-06 5.57494832e-06 -3.04562263e-07 -3.28670535e-06
      -4.33571404e-06 -7.67250458e-06 -1.37676852e-05 -1.51244740e-05
      -6.89410308e-06 5.36462403e-06 6.68950088e-06 -3.27821294e-06
      -1.16029296e-05 -1.58964212e-05 -1.53608617e-05 -1.42082772e-05
      -1.29523924e-05 -8.47527281e-06 -7.98905694e-06 -5.92925608e-06
      -5.24890447e-06 -4.87122315e-06 -5.23389281e-06 -1.91870436e-06
      -4.22391849e-06 -9.20383809e-06 -1.27283456e-05 -1.43743073e-05
      -1.35529381e-05 -1.30085837e-05 -1.29496366e-05 -1.08113381e-05
      -9.43910800e-06 -1.13706255e-05 -1.30301751e-05 -1.16856436e-05
      -8.17551427e-06 -7.92479568e-06 -7.83198539e-06 -3.75075911e-06
      -5.82038979e-07 4.32999173e-07 -4.20607648e-06 -5.66974768e-06
      -5.21288939e-06 -5.85146267e-07 -7.29994213e-07 -1.01195028e-05
      -1.81884243e-05 -1.94242566e-05 -2.04102726e-05 -1.05690515e-05
      8.08202913e-07 2.63188690e-06 -3.09584334e-06 -3.35879258e-06
      1.50527728e-06 1.79228050e-06 1.66236418e-06 -1.78684786e-06
      -4.71925006e-07 5.18149818e-06 3.67228040e-06 -4.87753368e-06
      -1.52908615e-05 -1.83704251e-05 -1.90706032e-05 -1.43983416e-05
      -7.84751046e-06 -1.02731583e-05 -1.31016559e-05 -9.39758775e-06
      -5.15574129e-07 1.03545763e-05 8.77609637e-06 -9.34684613e-06
      -1.97192639e-05 -2.15192722e-05 -1.68452898e-05 -8.64172762e-06
      -1.14119512e-05 -1.77267611e-05 -1.57636150e-05 -9.28275767e-06
      -5.51684798e-06 -7.26539838e-06 -1.61661574e-05 -1.80173920e-05
      -1.45539334e-05 -1.47392602e-05 -1.44319511e-05 -1.34156098e-05
      -8.53314668e-06 -7.22437971e-06 -5.90426089e-06 -1.37529287e-06
      4.52319910e-06 1.01062824e-06 -1.39731774e-05 -1.96772489e-05
      -1.89022230e-05 -1.76322956e-05 -1.76286630e-05 -1.71688353e-05
      -8.50131437e-06 1.24543828e-06 4.14464739e-06 -6.75202136e-06
      -1.55647067e-05 -1.06864636e-05 -7.59351508e-07 5.48402497e-08
      -5.46995261e-06 -7.13537474e-06 -7.77745936e-06 -7.75668013e-06
      -6.03002263e-07 9.63815728e-06 1.45944223e-05 4.81283632e-06
      -8.90263379e-07 -3.68552628e-06 -7.46846808e-06 -9.88172087e-06
      -1.65796082e-05 -1.84337187e-05 -1.16220617e-05 1.17097989e-06
      5.82915845e-06 5.43704618e-06 1.40652207e-06 1.29973827e-07
      -3.17868967e-06 -8.03983676e-06 -6.99171687e-06 -4.89109016e-06
      2.09985797e-06 5.83368092e-06 2.17283286e-06 -8.71773864e-06
      -1.63157929e-05 -1.77524871e-05 -1.38568030e-05 1.01163403e-06
      9.44842668e-06 7.13725376e-06 -1.09583220e-06 -4.62630851e-06
      -6.88316277e-06 -1.30593762e-05 -1.55773432e-05 -1.58963248e-05
      -8.32878504e-06 3.81874406e-06 5.67523011e-06 -4.26598717e-06
      -1.40373986e-05 -1.63276454e-05 -1.59023402e-05 -1.55704511e-05
      -1.48843392e-05 -1.29642222e-05 -1.02210088e-05 -8.19960951e-06
      -7.25413065e-06 -7.54647363e-06 -7.27782890e-06 -3.39879148e-06
      -5.69208487e-06 -1.12810130e-05 -1.45052909e-05 -1.55689650e-05
      -1.63852874e-05 -1.57683535e-05 -1.43328080e-05 -1.22404799e-05
      -1.33762205e-05 -1.35337896e-05 -1.49336165e-05 -1.19006409e-05
      -6.01082274e-06 -2.82042333e-06 -1.61777268e-06 -2.41462021e-06
      -4.28568637e-06 -9.08944912e-06 -1.03475713e-05 -6.34296475e-06
      -2.82501219e-06 5.07799882e-07 -1.45877800e-06 -8.68027473e-06
      -1.60028703e-05 -1.80264815e-05 -1.87482146e-05 -9.21813626e-06
      2.04219941e-06 2.74356057e-06 -1.34374625e-06 -2.71273871e-06
      2.94919982e-06 4.77832373e-06 2.10316989e-06 -9.74913519e-07
      2.26484485e-06 8.16995089e-06 7.38747349e-06 2.46320838e-06
      -6.81061738e-06 -1.21398753e-05 -1.51441191e-05 -1.23266927e-05
      -7.00057262e-06 -5.20646563e-06 -4.37799463e-06 -3.19174001e-06
      3.06824040e-06 9.33259525e-06 4.20357901e-06 -1.18240423e-05
      -2.18531895e-05 -2.29667330e-05 -1.77267411e-05 -8.64972026e-06
      -9.15956844e-06 -1.62007000e-05 -1.70405110e-05 -8.47776118e-06
      -9.15918645e-06 -9.30953320e-06 -1.63103286e-05 -1.76398571e-05
      -1.45618669e-05 -1.68988536e-05 -1.62300003e-05 -1.51184367e-05
      -1.00511234e-05 -8.94803725e-06 -8.89976309e-06 -3.02099102e-06
      4.27118130e-06 -7.06180685e-07 -1.48740255e-05 -2.15423115e-05
      -2.09069804e-05 -1.81492760e-05 -1.70081730e-05 -1.43956786e-05
      -6.31767080e-06 3.25034421e-06 4.27448549e-06 -7.91274397e-06
      -1.35314276e-05 -6.64860272e-06 2.17509955e-06 2.55422401e-06
      -4.58037493e-06 -4.96763823e-06 -4.01353145e-06 -2.29765010e-06
      4.27814030e-06 1.24783846e-05 1.60735708e-05 6.63183118e-06
      -1.72735031e-06 -3.99115970e-06 -4.55353938e-06 -7.24853908e-06
      -1.27249859e-05 -1.60544387e-05 -1.01978285e-05 4.37340395e-06
      1.06081434e-05 1.15650801e-05 4.44614443e-06 -6.15740532e-07
      -4.33238620e-06 -5.75872127e-06 -3.88026911e-06 -9.81935500e-07
      5.02191097e-06 5.73889474e-06 8.34066839e-07 -9.58388955e-06
      -1.76796020e-05 -1.87185215e-05 -1.35063947e-05 5.21981121e-07
      1.06929419e-05 1.00559027e-05 -2.24232008e-06 -9.77631316e-06
      -1.51543300e-05 -1.87444130e-05 -1.92702246e-05 -1.80172010e-05
      -6.38194251e-06 4.86456929e-06 4.29194688e-06 -7.04356898e-06
      -1.55718080e-05 -1.67272956e-05 -1.67318249e-05 -1.50357337e-05
      -1.42328181e-05 -1.27720978e-05 -1.06583739e-05 -7.57050930e-06
      -7.01112185e-06 -7.22440200e-06 -6.78303422e-06 -3.07933124e-06
      -7.49970923e-06 -1.39020749e-05 -1.41017354e-05 -1.59423744e-05
      -1.64100547e-05 -1.61270382e-05 -1.39930808e-05 -1.49428688e-05
      -1.42614872e-05 -1.43820052e-05 -1.55238886e-05 -1.36318113e-05
      -6.47748357e-06 2.80738891e-06 2.85149963e-06 -2.81623193e-06
      -9.40212794e-06 -1.43155230e-05 -1.33191515e-05 -8.24657218e-06
      -5.08459925e-06 -2.42743499e-06 -6.13666225e-06 -1.18391581e-05
      -1.61327662e-05 -1.69567302e-05 -1.71285847e-05 -1.00448251e-05
      -1.39990459e-06 1.97100758e-06 1.25728968e-06 -2.59185435e-06
      -2.16707281e-06 -4.96544590e-06 -7.05672255e-06 -4.26465886e-06
      6.29215492e-06 9.28081954e-06 4.27313216e-06 -4.41166821e-06
      -1.09570547e-05 -1.40742750e-05 -1.57509166e-05 -1.38779869e-05
      -6.54526366e-06 -9.31391583e-07 2.78898801e-06 6.24798713e-06
      9.03539149e-06 9.97928782e-06 3.65674236e-06 -9.04869285e-06
      -1.77479506e-05 -1.95503417e-05 -1.75565438e-05 -9.35736534e-06
      -9.47741955e-06 -1.67022718e-05 -1.74133711e-05 -1.16667588e-05
      -9.48044908e-06 -1.04618493e-05 -1.50177539e-05 -1.82486565e-05
      -1.73261069e-05 -1.55494290e-05 -1.65970687e-05 -1.34755819e-05
      -8.76942522e-06 -8.74760826e-06 -1.00986044e-05 -9.35678509e-06
      1.10296844e-06 5.62771811e-06 -4.32481193e-06 -1.77667680e-05
      -2.04850094e-05 -1.80445495e-05 -1.65857509e-05 -1.08697323e-05
      4.59955800e-07 7.64436481e-06 4.71837075e-06 -6.86956491e-06
      -1.10307637e-05 -6.33513309e-06 -4.16640688e-07 -2.94989195e-06
      -9.58106284e-06 -1.00885727e-05 -8.98667349e-06 -7.95306005e-06
      -7.76214335e-07 6.62175171e-06 1.24753524e-05 6.46029912e-06
      -3.97350414e-06 -7.68650989e-06 -9.73297847e-06 -1.05323243e-05
      -1.22072388e-05 -1.40125703e-05 -9.38009816e-06 2.25377221e-06
      9.40458995e-06 8.15658495e-06 8.25454208e-07 -7.10307768e-06
      -9.02706506e-06 -9.28873214e-06 -6.57455666e-06 1.88817671e-06
      7.12265501e-06 3.64777020e-06 -5.07253890e-06 -1.34246884e-05
      -1.81295527e-05 -1.79323069e-05 -1.51266295e-05 -3.03687034e-06
      1.22751508e-05 1.44305368e-05 4.41284783e-06 -9.23055086e-06
      -1.81947726e-05 -2.04137559e-05 -1.90717474e-05 -1.26562027e-05
      5.82740199e-07 5.81389759e-06 6.64820789e-07 -9.38788526e-06
      -1.45278173e-05 -1.65826423e-05 -1.65099573e-05 -1.55816651e-05
      -1.32701753e-05 -1.34524553e-05 -1.24619692e-05 -1.03754801e-05
      -9.15516011e-06 -7.41978965e-06 -7.75437456e-06 -4.54972042e-06
      -1.00050138e-05 -1.57717568e-05 -1.48892777e-05 -1.62031956e-05
      -1.64753710e-05 -1.63521418e-05 -1.51247887e-05 -1.61226526e-05
      -1.54726913e-05 -1.57661343e-05 -1.65727997e-05 -1.39728436e-05
      -6.35501783e-06 5.01788600e-06 3.68995666e-06 -2.32834623e-06
      -6.75950469e-06 -8.53419078e-06 -6.77929711e-06 -2.64998494e-06
      -2.74872559e-06 -2.90109369e-06 -5.73096486e-06 -1.09355960e-05
      -1.44954647e-05 -1.41163564e-05 -1.36152894e-05 -1.16273095e-05
      -3.86337524e-06 2.43779573e-06 5.63483627e-06 4.82655469e-06
      4.44882318e-07 -3.85481781e-06 -7.04435024e-06 -3.33634921e-06
      5.87993009e-06 7.34388186e-06 -2.21481037e-06 -1.26162449e-05
      -1.59606898e-05 -1.65052370e-05 -1.53551100e-05 -1.01586102e-05
      -3.58061993e-06 1.63081450e-06 6.32323690e-06 8.01880105e-06
      7.33678780e-06 5.14909925e-06 2.68377721e-06 -5.50352388e-06
      -8.71219800e-06 -6.27784721e-06 -1.88438526e-06 3.72726527e-06
      -5.03236379e-06 -1.66761092e-05 -1.74397028e-05 -1.12226235e-05
      -1.02985186e-05 -1.14334880e-05 -1.37931238e-05 -1.64848680e-05
      -1.88316553e-05 -1.90533756e-05 -1.60053296e-05 -1.23613854e-05
      -6.74071271e-06 -4.74222225e-06 -7.70946735e-06 -8.66057235e-06
      4.57369470e-06 1.16983838e-05 7.10703762e-06 -2.81686403e-06
      -1.13601363e-05 -1.11828367e-05 -9.05429079e-06 -1.60315255e-06
      4.32725483e-06 6.12656095e-06 -7.86233215e-07 -1.37586758e-05
      -1.47532492e-05 -4.84185057e-06 -2.99676685e-06 -7.54943403e-06
      -1.55223224e-05 -1.64106750e-05 -1.51684899e-05 -1.42454792e-05
      -7.57389853e-06 1.49495327e-06 7.92856099e-06 3.97269469e-06
      -3.88129956e-06 -1.13586821e-05 -1.82280110e-05 -1.79138879e-05
      -1.67460530e-05 -1.71287484e-05 -1.30952249e-05 -3.56835517e-06
      4.89656577e-06 5.93082450e-06 3.42020189e-06 -2.44315675e-06
      -5.69150825e-06 -4.62070784e-06 2.00212043e-08 7.37010760e-06
      8.66755181e-06 -1.89291640e-07 -1.38241649e-05 -1.85080862e-05
      -1.79869621e-05 -1.85677618e-05 -1.69515624e-05 -5.89800902e-06
      8.89175772e-06 1.46404300e-05 1.17548479e-05 3.46753063e-06
      -5.11957251e-06 -6.45600221e-06 -2.97707857e-06 4.70041596e-06
      1.04847786e-05 8.85280497e-06 -2.01864373e-06 -1.24706157e-05
      -1.51144541e-05 -1.62074157e-05 -1.57613995e-05 -1.58300008e-05
      -1.55267699e-05 -1.49604657e-05 -1.24321023e-05 -1.18313983e-05
      -1.11699110e-05 -1.01161686e-05 -8.82501354e-06 -5.46493493e-06
      -1.12046346e-05 -1.41075388e-05 -1.51884942e-05 -1.61218431e-05
      -1.60490745e-05 -1.59849842e-05 -1.65924012e-05 -1.71670345e-05
      -1.79529579e-05 -1.77675356e-05 -1.77441234e-05 -1.65525034e-05
      -7.66850553e-06 2.28661747e-06 3.79871472e-06 3.42526300e-06
      3.23216614e-06 2.72547140e-06 5.41877398e-06 3.86236707e-06
      2.45538718e-06 -2.77109916e-06 -6.73470913e-06 -1.10873061e-05
      -1.85694462e-05 -2.03003092e-05 -1.94554432e-05 -1.81154646e-05
      -8.85943609e-06 7.02491775e-07 4.86728550e-06 5.88214743e-06
      4.06219579e-06 -4.37099743e-07 -2.63812353e-06 -3.22190175e-07
      6.25970324e-06 4.75960269e-06 -6.71412045e-06 -1.61209464e-05
      -1.86987763e-05 -1.87333681e-05 -1.44480955e-05 -5.89640240e-06
      7.37005109e-07 4.04463208e-06 4.55852523e-06 4.99378302e-06
      2.16199078e-06 -1.68971110e-06 -7.27972918e-07 -1.65515576e-06
      -2.49831692e-06 -2.49410550e-06 1.63468258e-07 3.89273782e-06
      -3.01253772e-06 -1.50881360e-05 -1.84364708e-05 -1.53033270e-05
      -1.13587903e-05 -9.44230214e-06 -1.01030018e-05 -1.23856162e-05
      -1.07478609e-05 -8.73552108e-06 -5.63001186e-06 -3.27313228e-06
      -2.68222266e-06 -4.07697371e-06 -8.30529552e-06 -7.95810411e-06
      -2.61458763e-06 8.17352156e-06 9.46894943e-06 8.27222902e-06
      5.66854487e-06 3.60991748e-06 7.06662286e-06 9.00779287e-06
      1.04308892e-05 4.26627912e-06 -6.09257540e-06 -1.22143501e-05
      -1.15209186e-05 -4.80208519e-06 -1.91376353e-06 -5.54870758e-06
      -1.24671624e-05 -1.53947058e-05 -1.62546130e-05 -1.62061642e-05
      -1.08423910e-05 -1.55950295e-06 6.33087529e-06 5.46600768e-06
      -1.37823736e-06 -9.61396472e-06 -1.76744943e-05 -1.79527178e-05
      -1.69792802e-05 -1.47362744e-05 -1.23952386e-05 -5.30199486e-06
      7.05888908e-07 3.72773297e-06 5.51194717e-06 4.34740878e-06
      2.75536877e-06 2.95115751e-06 6.48375453e-06 1.20785608e-05
      1.00523157e-05 -1.63616801e-06 -1.54124300e-05 -1.93123342e-05
      -1.91203198e-05 -1.86780580e-05 -1.52021512e-05 -6.61672493e-06
      3.37494885e-06 1.24277103e-05 1.53674955e-05 1.46643197e-05
      1.22610090e-05 1.25053230e-05 1.46804905e-05 1.59072351e-05
      1.29201580e-05 6.02258388e-06 -5.75522563e-06 -1.48188929e-05
      -1.52355333e-05 -1.47527771e-05 -1.30100461e-05 -1.30332201e-05
      -1.31226825e-05 -1.21089406e-05 -8.98702001e-06 -8.73350655e-06
      -8.59988813e-06 -7.01692124e-06 -7.88319176e-06 -4.92853724e-06
      -1.35691798e-05 -1.44246405e-05 -1.47050641e-05 -1.58317234e-05
      -1.63178975e-05 -1.51319136e-05 -1.61494718e-05 -1.71200900e-05
      -1.84023957e-05 -1.84053624e-05 -1.88883023e-05 -1.82251097e-05
      -1.25921306e-05 -3.93847540e-06 3.33691474e-07 4.46817012e-06
      8.95471840e-06 1.20682789e-05 1.19122442e-05 8.04626325e-06
      2.76486821e-06 -3.27164713e-07 -4.73701311e-06 -8.33246759e-06
      -1.43365269e-05 -1.67086964e-05 -1.57755330e-05 -1.43700281e-05
      -1.04352403e-05 -3.77834795e-06 -1.03977946e-08 6.38757399e-07
      1.54464340e-06 -5.41949191e-07 -1.79070184e-06 1.53740552e-06
      5.36364450e-06 2.94412393e-06 -6.51369419e-06 -1.50677679e-05
      -1.80441293e-05 -1.79149883e-05 -1.66101618e-05 -8.63411060e-06
      -1.63267396e-06 -3.38440969e-07 -2.14385366e-07 -1.03434979e-06
      -2.22611470e-06 -5.34443370e-06 -6.71213684e-06 -6.23830692e-06
      -5.80234337e-06 -4.16618013e-06 -4.43453018e-06 -3.24126336e-06
      -4.88707065e-06 -1.18199996e-05 -1.52051180e-05 -9.35752178e-06
      -5.38048198e-06 -3.45854323e-06 -2.41728662e-06 -3.12962561e-06
      -4.30600085e-06 -3.90207742e-06 -1.23351788e-06 -2.15676073e-06
      -5.95206211e-06 -7.99374811e-06 -9.42976476e-06 -8.91475793e-06
      -7.99077407e-06 -4.19190428e-06 2.96343774e-06 8.77771890e-06
      1.10960964e-05 1.12613616e-05 1.06851758e-05 8.63691639e-06
      4.08321921e-06 -3.38551740e-06 -9.37470759e-06 -1.06343650e-05
      -1.04927958e-05 -7.92898663e-06 -5.99909345e-06 -8.26970336e-06
      -1.15228286e-05 -1.23151431e-05 -1.33396470e-05 -1.29781329e-05
      -1.01188680e-05 -2.64842947e-06 5.11479584e-06 4.86424278e-06
      -1.49251707e-06 -8.08214008e-06 -1.56695369e-05 -1.66971149e-05
      -1.76129870e-05 -1.65195743e-05 -1.06441166e-05 -6.09330937e-06
      -3.21765970e-06 1.25252973e-06 3.82117105e-06 5.67729785e-06
      5.38647009e-06 4.71539397e-06 6.15148110e-06 1.01686037e-05
      7.18129422e-06 -2.31890431e-06 -1.50152036e-05 -1.76101657e-05
      -1.72602904e-05 -1.70588100e-05 -1.34314278e-05 -6.79631694e-06
      -1.99840315e-06 5.24143752e-06 1.08790800e-05 1.45972199e-05
      1.60729360e-05 1.61401567e-05 1.59345727e-05 1.26170789e-05
      6.09478411e-06 6.95322910e-07 -4.26259248e-06 -1.06441448e-05
      -1.14863205e-05 -1.04608571e-05 -9.03352520e-06 -9.87722706e-06
      -9.73700935e-06 -8.96758957e-06 -8.27443000e-06 -7.43464489e-06
      -6.86148451e-06 -6.63125820e-06 -6.98622534e-06 -4.00420549e-06
      -1.11569889e-05 -1.18275702e-05 -1.20797531e-05 -1.26832392e-05
      -1.30433427e-05 -1.23613390e-05 -1.33199346e-05 -1.34891334e-05
      -1.46465427e-05 -1.63885907e-05 -1.66987920e-05 -1.64620142e-05
      -1.44593268e-05 -1.09824277e-05 -7.80695973e-06 -1.46393643e-06
      4.37491963e-06 4.66171650e-06 1.27003784e-06 -1.59991964e-06
      -2.67666587e-06 -5.75812692e-06 -7.63041862e-06 -8.74419311e-06
      -1.16475112e-05 -1.26571185e-05 -1.18094986e-05 -9.48954312e-06
      -5.32796366e-06 -5.34983371e-07 6.62769139e-07 2.17623824e-06
      3.90602872e-06 3.62912738e-06 2.31600666e-06 1.53019278e-06
      4.26836368e-06 2.39176325e-06 -3.75291597e-06 -1.09039120e-05
      -1.46324546e-05 -1.52302546e-05 -1.60315649e-05 -1.13996639e-05
      -7.99866939e-06 -8.12841517e-06 -7.55460724e-06 -6.18538206e-06
      -6.95431390e-06 -8.53917209e-06 -8.50346260e-06 -7.01156887e-06
      -5.59641376e-06 -5.86428905e-06 -5.75890999e-06 -7.66758512e-06
      -9.96333711e-06 -1.13924971e-05 -1.17605477e-05 -1.02590511e-05
      -7.62912532e-06 -3.91497497e-06 -3.08147946e-06 -2.61301739e-06
      -2.32563866e-06 -1.78363223e-06 -2.56805492e-06 -4.20135211e-06
      -4.13673752e-06 -7.21196238e-06 -8.18534772e-06 -7.08615698e-06
      -7.12591600e-06 -6.32316460e-06 -2.22111271e-06 2.42844476e-06
      5.56582290e-06 6.06405956e-06 3.74323099e-06 -2.42377098e-07
      -4.42760256e-06 -7.81949620e-06 -9.88241936e-06 -1.14404220e-05
      -1.08276508e-05 -8.98897088e-06 -7.82488223e-06 -8.21201866e-06
      -1.08037220e-05 -1.09840457e-05 -1.16359997e-05 -1.21533067e-05
      -1.17333020e-05 -8.83559460e-06 -5.32566173e-06 -4.62668595e-06
      -7.65939239e-06 -1.09655630e-05 -1.44549012e-05 -1.49546195e-05
      -1.45985878e-05 -1.44577652e-05 -1.17084401e-05 -6.86136491e-06
      -6.07895208e-06 -5.13341411e-06 -2.83349164e-06 -1.33507297e-06
      -7.55247413e-07 -8.83743837e-07 2.89368330e-07 1.06606944e-06
      9.76552997e-07 -3.10072232e-06 -1.01462219e-05 -1.29509954e-05
      -1.23663585e-05 -1.22712609e-05 -1.13209353e-05 -7.21734887e-06
      -5.01018712e-06 -3.62891728e-06 -7.38783967e-07 1.27359738e-06
      2.78422317e-06 3.30816192e-06 2.18498189e-06 -1.06310267e-06
      -4.29391412e-06 -5.89545107e-06 -7.47351260e-06 -1.09703869e-05
      -1.25740398e-05 -1.16440769e-05 -1.13615324e-05 -1.09076127e-05
      -1.01524056e-05 -9.47108219e-06 -8.76371450e-06 -7.73412557e-06
      -6.80275070e-06 -7.05918956e-06 -7.21428387e-06 -5.20600224e-06
      -8.26540236e-06 -8.68837469e-06 -9.40809514e-06 -1.00441648e-05
      -9.58875262e-06 -9.19974082e-06 -8.95355970e-06 -9.51701804e-06
      -9.61697151e-06 -9.57420343e-06 -1.11267891e-05 -1.10581768e-05
      -1.04350092e-05 -9.44420026e-06 -8.19735124e-06 -5.44733803e-06
      -1.25088070e-06 -1.75904279e-06 -4.49468871e-06 -6.20322226e-06
      -6.79131654e-06 -7.76457364e-06 -8.31025682e-06 -8.41142992e-06
      -9.29248836e-06 -9.24206597e-06 -8.94221557e-06 -6.02538830e-06
      -1.76636945e-06 -9.63063144e-07 -2.00008185e-06 -1.35381936e-06
      -1.67369217e-06 -8.62263789e-07 -5.79333687e-07 -1.43853549e-06
      -1.40572524e-06 -2.43435920e-06 -5.03921774e-06 -8.75714613e-06
      -1.02252789e-05 -1.07889628e-05 -1.09260554e-05 -8.86561520e-06
      -6.80367066e-06 -6.54568839e-06 -7.26750613e-06 -7.23301946e-06
      -7.61016099e-06 -7.82186271e-06 -7.35053027e-06 -6.54727864e-06
      -7.11739131e-06 -6.40469671e-06 -7.50991649e-06 -1.00295838e-05
      -9.36659217e-06 -8.52396079e-06 -8.53036181e-06 -7.90710328e-06
      -8.57476789e-06 -6.85719624e-06 -4.92516710e-06 -4.26899533e-06
      -3.49072911e-06 -3.05537219e-06 -3.53256428e-06 -3.87314230e-06
      -5.61333354e-06 -7.18927413e-06 -7.81694143e-06 -8.00628732e-06
      -7.71992381e-06 -8.19129491e-06 -8.31936904e-06 -7.14913995e-06
      -6.32189767e-06 -5.57010162e-06 -6.77566959e-06 -7.52623373e-06
      -8.44255374e-06 -8.59144075e-06 -9.15468718e-06 -9.75576677e-06
      -1.02384347e-05 -1.23863947e-05 -1.29841983e-05 -1.37516499e-05
      -1.51964805e-05 -1.55354101e-05 -1.49607513e-05 -1.51246204e-05
      -1.53472356e-05 -1.41509199e-05 -1.28049733e-05 -1.38525947e-05
      -1.53887086e-05 -1.65767924e-05 -1.61978696e-05 -1.56538026e-05
      -1.48274485e-05 -1.36102526e-05 -1.24074968e-05 -1.10661658e-05
      -1.07370706e-05 -1.19794067e-05 -1.11594700e-05 -9.95619303e-06
      -1.07564820e-05 -9.23730931e-06 -8.01064016e-06 -7.03035994e-06
      -6.49305321e-06 -8.24584913e-06 -1.09608500e-05 -1.15896155e-05
      -1.02926324e-05 -9.68525728e-06 -9.48681009e-06 -8.99232600e-06
      -8.62122033e-06 -7.18528236e-06 -5.77307947e-06 -6.46001945e-06
      -7.01731869e-06 -5.70786642e-06 -6.74366811e-06 -7.29883641e-06
      -6.98257145e-06 -6.85478926e-06 -5.77420542e-06 -8.96311212e-06
      -9.74846625e-06 -8.99264433e-06 -8.54790687e-06 -8.75602746e-06
      -7.64834840e-06 -7.88789475e-06 -6.95333983e-06 -5.62420382e-06
      -4.82574842e-06 -5.57547628e-06 -5.77465562e-06 -4.70082887e-06
      -1.02059721e-05 -1.08187760e-05 -1.14635777e-05 -1.21492858e-05
      -1.18459648e-05 -1.11553818e-05 -1.05539229e-05 -1.08658996e-05
      -1.05566660e-05 -9.29934231e-06 -1.05481340e-05 -1.08015993e-05
      -9.77823402e-06 -9.08551374e-06 -8.71232533e-06 -5.98458473e-06
      -5.03539559e-06 -5.51882931e-06 -7.98554902e-06 -8.08314599e-06
      -7.36403126e-06 -6.50131915e-06 -6.14953433e-06 -6.66790402e-06
      -6.51062692e-06 -6.78582455e-06 -6.55793610e-06 -5.72542513e-06
      -3.37022561e-06 -2.49354503e-06 -2.40506256e-06 -2.97221959e-06
      -2.32736761e-06 -2.97025667e-06 -4.59875810e-06 -3.91175035e-06
      -5.00475608e-06 -5.63944059e-06 -6.68213534e-06 -8.45264094e-06
      -9.32550392e-06 -9.69903613e-06 -1.02384365e-05 -9.83220980e-06
      -8.76078593e-06 -9.23755215e-06 -8.72918554e-06 -8.69382166e-06
      -8.68613733e-06 -8.72563578e-06 -8.45552495e-06 -8.21533467e-06
      -8.64617414e-06 -8.66696973e-06 -9.74386694e-06 -9.39745769e-06
      -9.31675186e-06 -8.93161632e-06 -8.87292299e-06 -8.85818190e-06
      -9.26405119e-06 -9.63372713e-06 -8.21498998e-06 -7.68282644e-06
      -6.50906350e-06 -6.79973300e-06 -8.46307194e-06 -9.56866825e-06
      -1.00285124e-05 -9.62924969e-06 -9.57668090e-06 -9.36986089e-06
      -9.78522621e-06 -1.28644178e-05 -1.34526417e-05 -1.49887464e-05
      -1.64947651e-05 -1.54955305e-05 -1.46862094e-05 -1.47342244e-05
      -1.50650740e-05 -1.54730114e-05 -1.59909814e-05 -1.59526317e-05
      -1.50557398e-05 -1.59050305e-05 -1.61844528e-05 -1.75025052e-05
      -1.89132916e-05 -1.71896754e-05 -1.57871455e-05 -1.58886578e-05
      -1.69990726e-05 -1.76368903e-05 -1.55265188e-05 -1.58811217e-05
      -1.61278986e-05 -1.64768680e-05 -1.58944586e-05 -1.51902514e-05
      -1.45800432e-05 -1.40075781e-05 -1.39592757e-05 -1.45195672e-05
      -1.46914881e-05 -1.52767661e-05 -1.52464900e-05 -1.50549095e-05
      -1.38195555e-05 -1.27375233e-05 -1.16046995e-05 -1.10200626e-05
      -1.08788481e-05 -1.05209429e-05 -1.08230024e-05 -1.09517932e-05
      -1.00851248e-05 -9.71572172e-06 -9.95828395e-06 -1.02987378e-05
      -9.91922025e-06 -9.31733939e-06 -1.01280584e-05 -1.09388511e-05
      -1.10633846e-05 -1.10061246e-05 -9.94332459e-06 -1.05238814e-05
      -1.03620914e-05 -1.01964024e-05 -1.05746985e-05 -1.15505363e-05
      -1.10030169e-05 -1.02293325e-05 -1.03317343e-05 -1.02908352e-05
      -9.67506458e-06 -9.68341737e-06 -9.40128757e-06 -8.77025741e-06
      -7.73212832e-06 -8.78100491e-06 -9.89738237e-06 -5.94157609e-06
      -5.54691360e-06 -8.19943216e-06 -8.35850460e-06 -8.99551196e-06
      -8.84979181e-06 -8.58056319e-06 -9.25481527e-06 -9.22308391e-06
      -8.40053508e-06 -7.08021980e-06 -6.51642995e-06 -7.16532531e-06
      -6.78929155e-06 -6.13488692e-06 -4.93160906e-06 -3.44310388e-06
      -3.25068095e-06 -4.15478871e-06 -6.25135544e-06 -5.89967203e-06
      -5.66379003e-06 -5.29968338e-06 -5.25028781e-06 -5.34683932e-06
      -5.49218385e-06 -6.25689290e-06 -6.87298871e-06 -7.06297578e-06
      -6.75748470e-06 -6.74195780e-06 -7.00243527e-06 -6.88582713e-06
      -6.64181016e-06 -7.06961418e-06 -7.86525197e-06 -7.27774113e-06
      -7.22166351e-06 -7.86399505e-06 -7.72467229e-06 -7.82999268e-06
      -7.88576745e-06 -7.67796791e-06 -7.56937834e-06 -8.33842205e-06
      -7.70557563e-06 -7.06359242e-06 -6.28662656e-06 -5.93502182e-06
      -6.39624750e-06 -6.08961045e-06 -5.74881369e-06 -5.96525661e-06
      -5.95771917e-06 -6.42278656e-06 -5.41950885e-06 -5.77493302e-06
      -6.19077900e-06 -6.37703033e-06 -5.91156959e-06 -5.59835371e-06
      -5.83618385e-06 -5.78838262e-06 -5.95224128e-06 -5.13764871e-06
      -4.77082040e-06 -5.44551222e-06 -5.71077999e-06 -6.45088357e-06
      -7.93255003e-06 -8.35505762e-06 -9.05491652e-06 -9.51176662e-06
      -1.17737800e-05 -1.22857800e-05 -1.28777210e-05 -1.34990332e-05
      -1.40152943e-05 -1.39550966e-05 -1.39479462e-05 -1.39108470e-05
      -1.46704106e-05 -1.48847303e-05 -1.43880679e-05 -1.47040000e-05
      -1.53860001e-05 -1.44124406e-05 -1.29377222e-05 -1.25975084e-05
      -1.19527958e-05 -1.13529968e-05 -1.11095724e-05 -1.11081954e-05
      -1.01403411e-05 -9.83210066e-06 -9.60623765e-06 -8.90136198e-06
      -8.56765291e-06 -8.81869255e-06 -9.27175188e-06 -9.25632412e-06
      -8.60437194e-06 -8.07432934e-06 -7.85104021e-06 -8.33609647e-06
      -8.68428833e-06 -8.96908205e-06 -9.01377734e-06 -8.43600537e-06
      -8.35308583e-06 -8.46314106e-06 -8.95106405e-06 -9.09699520e-06
      -8.75490514e-06 -8.70036183e-06 -8.89666171e-06 -9.33072079e-06
      -9.62741433e-06 -1.03457660e-05 -9.74641262e-06 -9.33980300e-06
      -8.66884693e-06 -8.36592790e-06 -8.61587614e-06 -8.75151727e-06
      -8.47422871e-06 -8.29218425e-06 -8.14277519e-06 -8.50072684e-06
      -8.54726568e-06 -7.55441670e-06 -6.57459805e-06 -7.56376903e-06
      -8.08828827e-06 -8.24955441e-06 -8.25395546e-06 -8.33517697e-06
      -7.39696134e-06 -6.89689068e-06 -7.59336444e-06 -7.42885686e-06
      -5.49163042e-06 -5.75985541e-06 -4.67969494e-06 6.87813383e-07</_></support_vectors>
  <uncompressed_sv_total>35</uncompressed_sv_total>
  <uncompressed_support_vectors>
    <_>
      178. 183. 179. 179. 181. 182. 180. 179. 178. 178. 178. 178. 176.
      176. 176. 177. 175. 175. 173. 172. 174. 174. 172. 170. 171. 173.
      172. 171. 170. 169. 168. 169. 169. 167. 166. 167. 167. 167. 166.
      166. 163. 163. 163. 162. 163. 161. 160. 161. 161. 160. 160. 160.
      160. 160. 161. 160. 160. 161. 160. 160. 158. 159. 159. 158. 159.
      159. 160. 161. 161. 162. 163. 164. 161. 160. 163. 164. 163. 163.
      164. 165. 164. 163. 162. 164. 163. 161. 163. 163. 162. 163. 163.
      162. 162. 162. 163. 162. 162. 161. 162. 163. 162. 163. 163. 162.
      162. 162. 161. 162. 162. 162. 160. 160. 162. 164. 163. 163. 164.
      162. 164. 165. 166. 166. 166. 166. 167. 167. 167. 169. 168. 168.
      168. 170. 172. 172. 171. 172. 174. 174. 175. 176. 175. 177. 177.
      161. 183. 180. 180. 182. 183. 179. 180. 179. 179. 178. 179. 179.
      178. 178. 178. 178. 179. 178. 177. 175. 175. 175. 175. 173. 173.
      173. 172. 170. 170. 170. 168. 169. 170. 169. 170. 172. 173. 171.
      170. 168. 167. 166. 167. 167. 167. 166. 165. 165. 166. 167. 166.
      166. 165. 165. 165. 164. 165. 164. 164. 162. 163. 164. 162. 162.
      162. 162. 161. 161. 161. 161. 160. 161. 160. 160. 161. 162. 163.
      164. 165. 166. 165. 161. 160. 161. 161. 160. 163. 163. 162. 162.
      164. 163. 164. 163. 165. 167. 167. 165. 164. 164. 164. 166. 166.
      166. 166. 165. 165. 166. 166. 165. 166. 167. 169. 169. 168. 168.
      168. 168. 169. 168. 169. 172. 172. 174. 175. 177. 176. 174. 173.
      174. 173. 174. 175. 175. 175. 175. 176. 176. 177. 177. 177. 178.
      180. 175. 186. 184. 186. 187. 186. 183. 183. 183. 184. 182. 182.
      184. 184. 181. 179. 180. 179. 180. 178. 176. 175. 176. 174. 175.
      177. 177. 175. 174. 174. 176. 174. 173. 175. 175. 178. 176. 167.
      162. 166. 173. 173. 171. 171. 171. 170. 170. 170. 169. 170. 171.
      170. 169. 169. 170. 168. 168. 169. 166. 166. 165. 168. 168. 167.
      167. 168. 168. 167. 168. 167. 166. 165. 166. 167. 167. 169. 170.
      163. 157. 156. 162. 170. 170. 168. 167. 167. 167. 168. 166. 166.
      167. 168. 168. 169. 168. 161. 155. 164. 170. 169. 169. 167. 169.
      170. 170. 171. 170. 169. 170. 169. 169. 173. 170. 166. 170. 173.
      172. 171. 171. 172. 172. 174. 178. 179. 176. 169. 166. 169. 179.
      182. 180. 177. 177. 178. 178. 179. 180. 181. 180. 179. 181. 183.
      183. 184. 178. 187. 186. 187. 188. 186. 185. 185. 185. 185. 183.
      185. 188. 169. 131. 117. 117. 116. 117. 117. 115. 115. 114. 113.
      128. 163. 177. 178. 178. 177. 178. 176. 176. 178. 180. 180. 154.
      110. 94. 116. 163. 178. 175. 176. 178. 178. 179. 181. 181. 181.
      181. 179. 178. 175. 174. 174. 177. 177. 174. 172. 172. 172. 171.
      171. 171. 172. 173. 172. 172. 171. 171. 171. 171. 172. 173. 161.
      131. 95. 75. 74. 88. 119. 153. 173. 173. 171. 171. 171. 170. 171.
      171. 171. 172. 173. 161. 116. 94. 134. 168. 172. 172. 171. 173.
      172. 173. 175. 174. 172. 172. 173. 175. 158. 120. 105. 126. 164.
      177. 174. 174. 174. 176. 181. 179. 156. 118. 91. 81. 89. 114. 152.
      180. 184. 179. 180. 182. 182. 182. 184. 183. 181. 184. 186. 184.
      183. 178. 187. 187. 189. 189. 189. 187. 187. 187. 187. 187. 190.
      188. 144. 64. 35. 34. 35. 34. 35. 34. 34. 34. 33. 66. 146. 180.
      181. 181. 179. 179. 180. 179. 181. 183. 171. 108. 44. 30. 71. 152.
      181. 179. 180. 180. 174. 170. 171. 173. 174. 175. 176. 176. 179.
      178. 174. 158. 154. 168. 176. 176. 174. 174. 176. 175. 175. 175.
      173. 173. 172. 173. 173. 174. 177. 158. 102. 50. 26. 18. 20. 22.
      39. 83. 146. 178. 176. 173. 174. 173. 173. 174. 176. 178. 175.
      142. 63. 39. 109. 167. 175. 174. 175. 176. 175. 174. 177. 177.
      175. 175. 178. 172. 116. 50. 36. 77. 151. 179. 177. 176. 177. 181.
      179. 141. 80. 41. 29. 27. 26. 36. 71. 134. 180. 184. 181. 184.
      184. 185. 186. 185. 183. 186. 188. 186. 186. 181. 189. 189. 191.
      190. 190. 190. 189. 190. 190. 191. 193. 189. 150. 77. 52. 51. 52.
      52. 51. 40. 22. 16. 18. 67. 150. 184. 183. 183. 182. 183. 184.
      183. 184. 185. 144. 62. 21. 20. 67. 156. 184. 182. 182. 164. 118.
      93. 94. 95. 97. 98. 102. 124. 167. 180. 159. 93. 73. 130. 172.
      176. 175. 177. 178. 178. 178. 177. 176. 174. 174. 176. 175. 177.
      171. 110. 41. 24. 46. 71. 73. 49. 23. 26. 80. 160. 182. 176. 178.
      178. 179. 181. 182. 173. 148. 94. 31. 30. 108. 170. 177. 178. 178.
      177. 178. 177. 178. 179. 178. 179. 181. 149. 68. 21. 21. 69. 153.
      181. 179. 180. 183. 183. 149. 75. 29. 38. 66. 80. 63. 33. 23. 68.
      149. 187. 187. 186. 186. 186. 188. 188. 188. 188. 190. 190. 191.
      186. 194. 192. 192. 192. 192. 192. 191. 192. 193. 193. 193. 191.
      179. 152. 144. 144. 145. 146. 146. 105. 37. 16. 38. 108. 168. 185.
      186. 185. 185. 186. 185. 185. 189. 178. 100. 30. 18. 19. 72. 163.
      186. 183. 183. 151. 64. 24. 32. 35. 35. 29. 30. 75. 155. 182. 155.
      63. 33. 117. 173. 176. 179. 180. 179. 181. 181. 180. 180. 178.
      179. 179. 179. 180. 145. 60. 24. 63. 127. 169. 168. 136. 69. 19.
      32. 121. 180. 180. 179. 179. 177. 148. 125. 102. 68. 34. 18. 33.
      111. 174. 179. 180. 181. 179. 181. 180. 181. 183. 180. 183. 173.
      108. 31. 18. 23. 71. 156. 184. 183. 185. 186. 170. 101. 29. 46.
      107. 154. 169. 151. 99. 34. 31. 107. 181. 189. 186. 188. 188. 189.
      190. 191. 191. 191. 192. 192. 186. 194. 194. 195. 193. 194. 193.
      192. 193. 194. 195. 194. 195. 195. 194. 194. 194. 196. 201. 191.
      121. 37. 29. 90. 160. 184. 187. 189. 188. 186. 188. 187. 190. 192.
      143. 52. 17. 17. 18. 77. 167. 188. 185. 185. 152. 55. 27. 74. 101.
      98. 59. 23. 76. 161. 185. 158. 62. 34. 124. 179. 182. 183. 182.
      181. 183. 182. 182. 183. 181. 181. 181. 182. 175. 109. 31. 46.
      127. 178. 182. 183. 182. 131. 46. 17. 86. 168. 184. 179. 181. 163.
      83. 34. 24. 16. 20. 23. 37. 116. 179. 182. 181. 184. 183. 184.
      182. 184. 183. 183. 186. 146. 63. 20. 21. 24. 75. 160. 188. 186.
      187. 184. 149. 64. 26. 95. 169. 187. 188. 188. 165. 77. 26. 75.
      166. 190. 188. 190. 189. 191. 194. 194. 195. 195. 194. 196. 189.
      194. 195. 195. 194. 196. 196. 195. 195. 195. 195. 195. 195. 193.
      192. 192. 192. 196. 197. 146. 65. 28. 73. 151. 186. 190. 191. 191.
      191. 187. 188. 191. 195. 177. 90. 23. 19. 18. 18. 80. 170. 189.
      188. 188. 154. 55. 44. 128. 177. 174. 108. 32. 82. 166. 187. 160.
      64. 37. 128. 181. 185. 184. 183. 183. 184. 184. 184. 184. 183.
      184. 182. 181. 170. 85. 26. 75. 159. 185. 179. 183. 186. 159. 75.
      16. 70. 160. 184. 181. 183. 164. 86. 45. 45. 45. 34. 20. 39. 122.
      180. 184. 183. 185. 185. 185. 184. 186. 183. 187. 174. 102. 34.
      23. 22. 24. 80. 164. 188. 186. 187. 184. 134. 45. 39. 131. 187.
      190. 188. 192. 185. 110. 34. 62. 155. 193. 191. 191. 192. 195.
      196. 197. 198. 196. 196. 198. 187. 195. 197. 198. 197. 197. 197.
      197. 196. 196. 196. 196. 196. 195. 195. 195. 199. 203. 165. 82.
      32. 61. 138. 186. 192. 191. 193. 191. 192. 190. 192. 195. 190.
      136. 45. 36. 60. 39. 19. 81. 175. 192. 189. 190. 154. 54. 48. 141.
      191. 187. 117. 34. 86. 174. 197. 165. 65. 40. 131. 183. 185. 185.
      185. 186. 186. 185. 185. 185. 185. 186. 184. 184. 171. 81. 24. 82.
      167. 187. 181. 185. 188. 166. 80. 17. 74. 162. 186. 184. 183. 180.
      149. 132. 134. 129. 81. 21. 38. 127. 184. 186. 185. 186. 186. 186.
      187. 187. 187. 186. 141. 59. 38. 62. 40. 24. 84. 167. 190. 187.
      187. 184. 130. 41. 42. 140. 193. 193. 191. 194. 191. 115. 37. 68.
      158. 193. 192. 193. 196. 199. 201. 205. 206. 204. 201. 199. 186.
      196. 198. 201. 200. 199. 200. 200. 198. 198. 197. 197. 198. 198.
      197. 198. 203. 183. 102. 34. 31. 100. 180. 200. 195. 193. 193.
      192. 193. 192. 195. 196. 166. 82. 31. 90. 131. 73. 24. 87. 178.
      193. 191. 193. 152. 52. 49. 143. 191. 187. 117. 33. 80. 161. 184.
      153. 59. 43. 136. 186. 186. 187. 188. 188. 187. 187. 187. 187.
      187. 187. 186. 187. 177. 92. 23. 63. 153. 194. 191. 191. 193. 151.
      60. 21. 92. 173. 188. 185. 183. 186. 184. 183. 186. 182. 118. 26.
      37. 131. 187. 189. 187. 187. 187. 188. 189. 189. 193. 172. 95. 41.
      85. 136. 75. 27. 86. 168. 192. 189. 188. 187. 141. 50. 29. 114.
      190. 203. 202. 203. 182. 89. 33. 88. 171. 192. 193. 196. 199. 204.
      209. 215. 219. 216. 207. 201. 189. 198. 201. 199. 196. 198. 203.
      201. 198. 198. 197. 196. 198. 199. 198. 200. 191. 125. 42. 17. 27.
      72. 139. 187. 200. 196. 194. 194. 194. 194. 197. 189. 125. 42. 57.
      146. 169. 86. 28. 94. 180. 194. 193. 195. 153. 49. 49. 145. 192.
      191. 119. 28. 40. 77. 90. 75. 31. 48. 140. 188. 188. 188. 189.
      189. 188. 188. 188. 188. 189. 188. 187. 188. 185. 122. 34. 28. 94.
      166. 192. 190. 165. 97. 31. 41. 129. 186. 188. 186. 187. 188. 187.
      187. 190. 186. 119. 24. 41. 135. 188. 189. 188. 188. 188. 189.
      189. 193. 193. 135. 53. 56. 138. 178. 93. 30. 90. 171. 192. 191.
      191. 190. 160. 77. 19. 59. 138. 182. 190. 174. 119. 45. 43. 122.
      184. 195. 197. 198. 201. 208. 216. 223. 230. 227. 216. 205. 189.
      199. 191. 168. 160. 175. 194. 198. 199. 198. 197. 197. 198. 199.
      200. 199. 172. 84. 29. 25. 23. 22. 48. 121. 186. 198. 195. 195.
      195. 197. 200. 164. 77. 35. 105. 182. 175. 84. 29. 98. 182. 194.
      193. 196. 153. 49. 52. 148. 193. 191. 118. 26. 26. 45. 50. 40. 18.
      51. 141. 188. 192. 192. 191. 190. 191. 190. 190. 190. 191. 190.
      190. 188. 189. 167. 84. 24. 30. 70. 105. 105. 73. 33. 32. 98. 170.
      189. 191. 191. 190. 189. 189. 189. 191. 187. 116. 23. 46. 138.
      188. 190. 190. 190. 190. 190. 191. 197. 177. 85. 38. 97. 174. 184.
      88. 29. 94. 176. 191. 191. 193. 193. 182. 127. 43. 22. 54. 87. 99.
      80. 41. 33. 89. 164. 192. 197. 198. 195. 197. 204. 214. 225. 229.
      226. 219. 206. 187. 192. 166. 127. 116. 136. 178. 195. 198. 199.
      199. 199. 198. 199. 199. 198. 181. 134. 99. 93. 71. 35. 13. 48.
      144. 196. 195. 194. 195. 201. 194. 121. 42. 68. 155. 197. 176. 83.
      29. 101. 186. 195. 193. 196. 152. 48. 58. 153. 193. 189. 116. 30.
      66. 117. 130. 105. 38. 53. 146. 191. 192. 192. 193. 193. 192. 192.
      192. 192. 192. 193. 193. 190. 194. 201. 144. 50. 15. 13. 17. 17.
      17. 19. 63. 159. 196. 191. 192. 192. 190. 190. 191. 191. 192. 188.
      113. 22. 49. 141. 189. 190. 191. 192. 192. 192. 195. 195. 136. 47.
      59. 143. 192. 182. 83. 26. 96. 178. 192. 193. 192. 196. 200. 174.
      77. 15. 15. 19. 23. 22. 15. 47. 139. 199. 197. 197. 196. 191. 192.
      197. 207. 216. 217. 214. 210. 198. 176. 187. 150. 110. 101. 121.
      167. 188. 194. 198. 199. 200. 198. 199. 198. 197. 197. 194. 184.
      181. 164. 104. 31. 21. 107. 187. 197. 197. 198. 204. 164. 70. 45.
      120. 187. 200. 174. 81. 30. 102. 188. 197. 196. 198. 148. 45. 63.
      158. 196. 190. 112. 34. 102. 178. 196. 160. 55. 55. 149. 193. 193.
      192. 194. 194. 193. 193. 193. 193. 193. 193. 192. 193. 200. 190.
      113. 33. 16. 26. 44. 39. 26. 20. 47. 135. 195. 196. 191. 191. 190.
      192. 193. 191. 193. 188. 112. 21. 52. 146. 192. 192. 193. 194.
      195. 196. 199. 168. 75. 37. 106. 177. 197. 180. 79. 25. 100. 180.
      196. 195. 193. 200. 196. 147. 55. 17. 35. 54. 56. 40. 19. 33. 109.
      185. 201. 198. 197. 191. 186. 189. 198. 204. 208. 205. 200. 189.
      165. 188. 163. 132. 123. 137. 168. 184. 193. 198. 199. 201. 200.
      201. 199. 198. 198. 200. 200. 202. 204. 167. 70. 15. 86. 175. 198.
      198. 206. 193. 113. 45. 83. 163. 196. 199. 171. 79. 32. 106. 189.
      200. 198. 199. 147. 43. 65. 159. 199. 192. 108. 32. 109. 185. 201.
      160. 53. 57. 150. 193. 194. 193. 195. 195. 195. 193. 193. 193.
      194. 194. 195. 198. 197. 132. 43. 25. 69. 120. 146. 140. 105. 53.
      21. 62. 155. 195. 193. 192. 193. 193. 193. 193. 193. 186. 109. 19.
      56. 150. 193. 194. 193. 194. 195. 198. 189. 119. 37. 67. 149. 191.
      200. 178. 74. 26. 105. 181. 197. 196. 197. 200. 160. 76. 30. 61.
      115. 147. 151. 127. 74. 30. 49. 133. 193. 197. 193. 191. 180. 177.
      180. 185. 191. 186. 181. 178. 160. 192. 182. 171. 163. 165. 178.
      189. 195. 199. 199. 201. 204. 204. 204. 203. 202. 199. 199. 200.
      203. 189. 98. 16. 75. 166. 200. 202. 207. 156. 65. 58. 136. 193.
      201. 204. 173. 78. 36. 115. 194. 204. 201. 200. 145. 40. 69. 160.
      198. 189. 105. 33. 110. 185. 199. 155. 50. 61. 153. 193. 194. 193.
      195. 196. 195. 194. 194. 194. 194. 195. 196. 199. 174. 75. 24. 73.
      149. 189. 198. 198. 181. 124. 45. 24. 107. 184. 196. 194. 194.
      194. 194. 194. 195. 185. 104. 17. 60. 152. 192. 193. 194. 194.
      196. 195. 157. 67. 42. 121. 183. 200. 204. 177. 71. 30. 113. 188.
      201. 197. 198. 189. 118. 38. 56. 135. 181. 193. 196. 190. 151. 69.
      30. 90. 176. 197. 193. 193. 182. 169. 158. 156. 162. 165. 166.
      170. 157. 197. 194. 192. 187. 187. 191. 195. 197. 200. 201. 202.
      208. 201. 198. 203. 204. 200. 200. 201. 203. 194. 107. 18. 72.
      162. 201. 206. 188. 101. 36. 75. 155. 187. 189. 190. 157. 70. 36.
      108. 178. 196. 202. 200. 139. 36. 74. 166. 203. 192. 105. 32. 113.
      187. 200. 154. 49. 64. 156. 195. 195. 195. 196. 197. 196. 195.
      195. 195. 195. 196. 198. 196. 143. 45. 40. 125. 187. 195. 194.
      194. 195. 169. 81. 16. 78. 171. 196. 194. 193. 194. 193. 194. 196.
      184. 99. 15. 64. 155. 193. 194. 195. 196. 198. 183. 111. 35. 61.
      146. 183. 186. 187. 157. 63. 31. 105. 173. 194. 200. 198. 172. 85.
      34. 99. 179. 198. 197. 198. 200. 190. 113. 36. 66. 158. 197. 196.
      194. 187. 176. 163. 152. 152. 161. 169. 175. 159. 199. 199. 197.
      195. 197. 198. 199. 199. 200. 203. 205. 185. 137. 127. 167. 198.
      201. 201. 202. 203. 193. 105. 19. 75. 163. 201. 203. 148. 52. 19.
      48. 88. 104. 105. 102. 85. 42. 27. 59. 94. 136. 186. 201. 136. 33.
      73. 164. 202. 191. 102. 32. 114. 187. 199. 150. 46. 65. 158. 195.
      195. 196. 198. 197. 196. 196. 196. 196. 196. 196. 197. 191. 125.
      34. 56. 148. 194. 196. 195. 196. 198. 183. 99. 17. 68. 164. 196.
      196. 195. 196. 194. 195. 196. 182. 95. 14. 67. 157. 193. 195. 196.
      196. 196. 154. 66. 22. 46. 88. 102. 101. 100. 82. 39. 25. 57. 93.
      140. 192. 198. 161. 66. 39. 122. 192. 200. 197. 198. 201. 199.
      130. 44. 62. 154. 197. 198. 194. 191. 186. 180. 177. 175. 177.
      182. 185. 167. 200. 199. 200. 199. 200. 201. 202. 202. 201. 203.
      204. 156. 64. 46. 123. 193. 203. 202. 204. 208. 184. 87. 19. 86.
      170. 200. 196. 115. 28. 16. 19. 22. 24. 26. 25. 24. 20. 20. 19.
      23. 83. 170. 197. 140. 40. 47. 108. 134. 125. 67. 32. 115. 188.
      201. 147. 42. 69. 160. 196. 196. 196. 197. 197. 197. 197. 197.
      197. 196. 196. 197. 189. 123. 33. 56. 148. 197. 197. 195. 198.
      201. 180. 93. 19. 73. 167. 196. 195. 196. 195. 195. 196. 197. 182.
      95. 13. 69. 159. 194. 196. 197. 196. 188. 130. 45. 19. 22. 26. 27.
      27. 28. 25. 20. 19. 22. 32. 94. 182. 196. 158. 66. 39. 120. 197.
      203. 196. 199. 206. 201. 121. 43. 73. 162. 198. 197. 197. 195.
      192. 191. 193. 192. 191. 194. 194. 174. 203. 202. 204. 204. 201.
      203. 203. 202. 203. 204. 202. 161. 63. 31. 104. 189. 210. 209.
      212. 208. 153. 53. 26. 105. 181. 199. 192. 129. 65. 60. 59. 57.
      56. 56. 60. 52. 29. 23. 39. 56. 105. 174. 197. 161. 72. 26. 32.
      40. 36. 22. 28. 111. 186. 200. 144. 40. 72. 162. 196. 198. 197.
      197. 198. 198. 197. 197. 197. 197. 197. 198. 194. 138. 43. 40.
      127. 197. 203. 199. 201. 205. 160. 64. 23. 95. 178. 196. 196. 197.
      195. 196. 196. 197. 180. 94. 15. 73. 162. 195. 198. 198. 196. 186.
      140. 78. 61. 63. 63. 62. 64. 68. 57. 29. 25. 48. 73. 122. 185.
      196. 167. 86. 33. 87. 185. 213. 209. 211. 216. 179. 83. 36. 95.
      173. 198. 199. 200. 199. 196. 196. 198. 198. 198. 199. 198. 175.
      201. 203. 205. 206. 204. 204. 204. 202. 203. 202. 202. 180. 89.
      28. 59. 142. 193. 200. 195. 157. 82. 23. 51. 136. 190. 200. 196.
      178. 158. 156. 155. 154. 152. 153. 158. 130. 57. 38. 102. 151.
      171. 192. 199. 189. 141. 95. 80. 81. 79. 81. 91. 141. 191. 199.
      140. 41. 76. 164. 196. 199. 197. 197. 198. 198. 198. 198. 197.
      197. 197. 197. 197. 165. 72. 23. 67. 151. 203. 212. 207. 171. 92.
      28. 46. 135. 189. 196. 197. 197. 197. 198. 196. 197. 177. 90. 17.
      81. 167. 196. 198. 197. 197. 194. 179. 160. 158. 159. 159. 158.
      161. 164. 133. 55. 43. 110. 161. 179. 194. 198. 182. 117. 37. 41.
      113. 175. 199. 194. 166. 99. 37. 47. 129. 186. 198. 201. 200. 199.
      199. 198. 199. 201. 200. 199. 199. 174. 202. 203. 205. 206. 204.
      204. 204. 204. 204. 202. 203. 194. 132. 52. 27. 55. 91. 102. 91.
      59. 28. 35. 101. 171. 197. 201. 201. 200. 200. 199. 200. 198. 197.
      199. 201. 160. 64. 47. 135. 196. 200. 200. 199. 198. 191. 180.
      174. 175. 175. 176. 177. 188. 199. 198. 134. 38. 77. 163. 197.
      200. 199. 198. 198. 198. 198. 198. 197. 196. 197. 198. 199. 186.
      123. 44. 22. 53. 95. 110. 101. 67. 31. 36. 100. 175. 195. 196.
      197. 197. 196. 198. 198. 200. 176. 87. 18. 83. 169. 196. 197. 196.
      197. 197. 197. 198. 198. 199. 199. 199. 200. 201. 158. 63. 50.
      135. 192. 199. 198. 198. 193. 156. 78. 27. 36. 74. 99. 94. 63. 33.
      41. 100. 169. 196. 199. 200. 200. 200. 201. 200. 202. 203. 202.
      203. 199. 171. 203. 204. 205. 205. 205. 204. 203. 204. 204. 204.
      203. 201. 176. 111. 55. 33. 31. 31. 28. 31. 49. 96. 160. 192. 199.
      202. 202. 201. 201. 199. 200. 199. 199. 201. 201. 156. 63. 51.
      137. 198. 202. 202. 201. 199. 200. 200. 199. 200. 201. 201. 199.
      200. 199. 194. 147. 77. 104. 170. 198. 199. 200. 199. 199. 200.
      200. 197. 196. 197. 197. 198. 198. 199. 177. 110. 49. 22. 19. 22.
      21. 25. 49. 100. 162. 194. 197. 198. 198. 197. 197. 198. 200. 201.
      177. 89. 26. 88. 169. 197. 199. 198. 199. 197. 197. 198. 198. 197.
      198. 199. 200. 200. 153. 63. 56. 139. 193. 199. 198. 198. 199.
      187. 141. 75. 38. 33. 35. 35. 36. 55. 106. 163. 194. 200. 200.
      200. 201. 201. 202. 202. 203. 203. 203. 203. 199. 170. 204. 206.
      207. 206. 206. 205. 205. 204. 205. 205. 204. 204. 201. 176. 134.
      100. 78. 74. 78. 97. 129. 169. 195. 201. 201. 201. 203. 203. 203.
      200. 201. 200. 200. 202. 199. 165. 100. 92. 153. 197. 202. 202.
      202. 201. 201. 201. 201. 200. 201. 201. 200. 200. 200. 196. 181.
      158. 166. 189. 199. 199. 200. 200. 200. 201. 200. 197. 197. 198.
      199. 199. 199. 200. 198. 176. 132. 88. 65. 59. 65. 92. 133. 172.
      194. 200. 199. 199. 199. 199. 199. 199. 199. 199. 181. 121. 82.
      125. 179. 198. 200. 198. 198. 198. 198. 198. 199. 198. 199. 199.
      199. 198. 164. 107. 104. 158. 195. 200. 200. 200. 201. 198. 186.
      154. 116. 93. 84. 88. 106. 139. 177. 196. 201. 201. 201. 202. 204.
      203. 203. 203. 203. 203. 204. 204. 199. 168. 205. 206. 207. 206.
      205. 205. 206. 205. 205. 204. 205. 205. 204. 203. 195. 180. 167.
      164. 166. 178. 191. 200. 204. 204. 203. 202. 205. 203. 203. 201.
      201. 201. 201. 202. 200. 188. 167. 164. 184. 197. 200. 201. 203.
      203. 202. 202. 201. 200. 200. 200. 201. 200. 201. 198. 196. 196.
      196. 198. 199. 200. 199. 199. 199. 200. 199. 197. 198. 199. 200.
      200. 200. 199. 200. 199. 191. 177. 166. 158. 162. 178. 193. 200.
      199. 199. 201. 200. 199. 199. 200. 200. 199. 198. 192. 177. 168.
      179. 193. 200. 200. 198. 198. 199. 199. 199. 199. 200. 199. 200.
      199. 198. 186. 172. 171. 186. 198. 202. 203. 202. 201. 201. 200.
      194. 184. 174. 168. 172. 182. 193. 201. 203. 201. 202. 203. 204.
      204. 204. 204. 204. 203. 204. 205. 204. 200. 166. 207. 207. 208.
      208. 207. 208. 209. 208. 207. 206. 207. 207. 207. 206. 205. 204.
      204. 204. 203. 204. 205. 208. 211. 211. 209. 209. 210. 205. 203.
      202. 201. 202. 203. 202. 201. 200. 199. 198. 200. 199. 200. 202.
      201. 202. 202. 201. 201. 201. 201. 200. 202. 200. 199. 199. 197.
      198. 199. 199. 200. 200. 199. 200. 199. 198. 197. 197. 198. 199.
      200. 200. 202. 199. 201. 200. 199. 201. 202. 200. 199. 201. 201.
      201. 200. 201. 203. 203. 200. 199. 202. 201. 201. 201. 199. 198.
      200. 200. 198. 201. 202. 201. 201. 199. 200. 201. 200. 200. 200.
      201. 202. 201. 199. 199. 199. 200. 203. 208. 210. 209. 211. 211.
      208. 203. 202. 200. 200. 200. 201. 202. 203. 203. 202. 203. 204.
      204. 202. 203. 203. 203. 205. 205. 205. 206. 203. 163. 217. 215.
      215. 215. 214. 213. 213. 213. 213. 213. 212. 213. 214. 212. 211.
      211. 213. 211. 211. 213. 212. 211. 211. 212. 211. 212. 215. 214.
      211. 211. 210. 211. 212. 210. 211. 211. 211. 211. 214. 213. 213.
      213. 212. 212. 213. 213. 212. 212. 212. 211. 211. 211. 210. 211.
      211. 209. 209. 209. 211. 211. 211. 210. 209. 205. 205. 208. 206.
      203. 205. 206. 204. 203. 205. 205. 203. 204. 205. 205. 203. 204.
      206. 206. 204. 205. 206. 207. 206. 205. 207. 206. 206. 206. 205.
      204. 206. 206. 206. 208. 208. 208. 208. 207. 208. 210. 209. 208.
      210. 211. 211. 211. 213. 211. 210. 213. 213. 209. 205. 207. 207.
      206. 208. 212. 217. 216. 215. 216. 215. 215. 219. 218. 218. 220.
      220. 220. 220. 220. 220. 223. 224. 222. 222. 221. 204. 149.</_>
    <_>
      70. 68. 58. 59. 63. 67. 70. 71. 72. 73. 73. 73. 75. 76. 76. 76.
      76. 76. 76. 77. 77. 78. 79. 80. 79. 82. 82. 84. 86. 84. 84. 83.
      79. 79. 80. 81. 84. 84. 83. 85. 85. 88. 88. 89. 89. 89. 88. 90.
      93. 92. 92. 96. 98. 97. 97. 100. 99. 102. 108. 112. 114. 115. 119.
      114. 117. 124. 127. 129. 128. 132. 132. 130. 132. 139. 145. 145.
      148. 150. 147. 149. 152. 157. 161. 165. 166. 164. 164. 166. 170.
      174. 177. 180. 181. 182. 178. 178. 183. 187. 188. 190. 193. 194.
      192. 188. 191. 195. 198. 191. 182. 180. 188. 191. 193. 198. 201.
      205. 201. 202. 203. 202. 202. 208. 213. 217. 214. 214. 212. 213.
      214. 217. 221. 223. 229. 228. 222. 220. 220. 223. 223. 203. 132.
      80. 59. 59. 68. 65. 59. 70. 71. 73. 80. 80. 80. 82. 84. 82. 84.
      83. 82. 83. 85. 87. 86. 86. 84. 81. 79. 85. 84. 91. 104. 96. 89.
      88. 97. 107. 100. 97. 105. 108. 110. 111. 118. 127. 132. 136. 139.
      141. 143. 149. 158. 162. 165. 166. 167. 168. 171. 180. 184. 189.
      190. 192. 192. 197. 201. 204. 206. 213. 214. 212. 211. 212. 212.
      215. 216. 223. 222. 222. 223. 222. 222. 223. 225. 226. 228. 225.
      225. 224. 224. 223. 223. 225. 226. 225. 223. 224. 222. 223. 224.
      224. 226. 227. 224. 223. 221. 223. 224. 222. 223. 223. 222. 220.
      217. 215. 218. 218. 219. 220. 221. 220. 220. 218. 218. 219. 221.
      223. 223. 223. 220. 220. 222. 223. 224. 225. 223. 223. 222. 221.
      221. 220. 219. 218. 217. 217. 176. 95. 67. 60. 69. 62. 64. 66. 73.
      82. 99. 106. 106. 107. 113. 115. 111. 118. 131. 134. 135. 138.
      138. 141. 144. 150. 157. 160. 162. 166. 172. 175. 181. 186. 188.
      187. 175. 170. 190. 202. 209. 219. 222. 218. 216. 218. 219. 222.
      227. 228. 227. 227. 223. 222. 225. 226. 225. 224. 222. 224. 224.
      222. 223. 224. 223. 224. 224. 220. 221. 220. 221. 223. 223. 224.
      222. 222. 223. 223. 223. 224. 224. 224. 222. 220. 220. 220. 219.
      220. 220. 219. 219. 217. 220. 220. 219. 219. 218. 220. 219. 218.
      217. 218. 220. 220. 218. 219. 218. 219. 220. 220. 220. 220. 220.
      219. 217. 217. 217. 218. 219. 218. 219. 218. 217. 217. 217. 213.
      214. 218. 222. 223. 220. 218. 222. 220. 221. 220. 219. 218. 219.
      219. 219. 217. 215. 215. 187. 105. 72. 60. 66. 63. 63. 73. 114.
      175. 195. 195. 198. 203. 205. 210. 212. 211. 211. 212. 211. 214.
      217. 219. 219. 218. 216. 216. 216. 216. 216. 216. 218. 217. 215.
      214. 210. 213. 217. 221. 220. 220. 219. 218. 218. 219. 220. 219.
      217. 220. 216. 216. 218. 217. 217. 217. 217. 218. 219. 218. 219.
      220. 219. 218. 219. 220. 219. 217. 220. 221. 219. 215. 217. 220.
      217. 221. 221. 221. 221. 221. 221. 221. 221. 220. 221. 220. 220.
      219. 220. 217. 219. 219. 220. 220. 219. 219. 219. 220. 221. 219.
      221. 218. 219. 220. 219. 220. 218. 212. 192. 164. 147. 144. 155.
      180. 206. 218. 218. 219. 220. 218. 219. 217. 217. 197. 167. 142.
      130. 136. 153. 182. 210. 222. 221. 221. 221. 222. 221. 221. 220.
      220. 219. 218. 216. 214. 197. 114. 77. 59. 65. 61. 62. 104. 185.
      215. 215. 216. 216. 216. 215. 216. 215. 213. 213. 214. 214. 213.
      215. 216. 215. 215. 216. 214. 215. 214. 216. 215. 216. 216. 215.
      214. 215. 216. 212. 207. 205. 212. 217. 216. 218. 218. 216. 217.
      218. 215. 214. 216. 202. 182. 163. 161. 177. 201. 215. 217. 219.
      218. 219. 217. 217. 217. 216. 219. 217. 194. 150. 145. 176. 218.
      219. 219. 219. 220. 221. 221. 222. 223. 223. 222. 221. 221. 223.
      218. 202. 175. 177. 212. 218. 219. 219. 219. 219. 222. 217. 221.
      220. 220. 221. 220. 220. 219. 207. 154. 101. 75. 73. 76. 79. 91.
      127. 188. 217. 220. 221. 218. 218. 215. 177. 115. 81. 69. 72. 73.
      76. 90. 128. 195. 220. 221. 219. 220. 220. 221. 221. 220. 220.
      219. 217. 215. 206. 125. 83. 61. 67. 61. 76. 133. 201. 208. 211.
      212. 213. 214. 213. 213. 213. 214. 215. 215. 214. 212. 200. 180.
      166. 160. 175. 200. 213. 216. 216. 215. 215. 215. 215. 215. 202.
      169. 140. 122. 115. 120. 146. 185. 214. 216. 219. 218. 217. 216.
      206. 160. 116. 95. 88. 87. 94. 111. 159. 209. 217. 218. 218. 218.
      218. 218. 219. 218. 203. 131. 89. 100. 173. 225. 219. 220. 221.
      221. 222. 223. 222. 222. 223. 222. 220. 220. 220. 218. 171. 97.
      102. 186. 217. 211. 218. 218. 218. 219. 217. 210. 207. 221. 219.
      219. 219. 209. 147. 89. 79. 78. 84. 88. 83. 80. 84. 117. 191. 219.
      219. 217. 216. 189. 108. 79. 78. 85. 93. 94. 85. 79. 84. 125. 199.
      220. 220. 220. 221. 221. 220. 220. 220. 219. 219. 216. 212. 147.
      91. 63. 64. 61. 84. 152. 206. 208. 212. 213. 214. 214. 213. 215.
      214. 213. 215. 216. 205. 167. 117. 81. 70. 72. 86. 125. 183. 212.
      215. 214. 215. 217. 214. 189. 127. 87. 76. 76. 75. 77. 78. 109.
      180. 216. 218. 216. 218. 207. 137. 86. 80. 80. 87. 88. 85. 86. 92.
      167. 214. 219. 219. 218. 218. 217. 217. 216. 169. 94. 89. 136.
      216. 222. 219. 221. 221. 222. 222. 222. 223. 222. 222. 221. 221.
      221. 219. 215. 167. 89. 97. 183. 188. 125. 173. 218. 221. 218.
      208. 149. 132. 201. 219. 220. 217. 181. 95. 80. 84. 128. 191. 204.
      171. 109. 82. 83. 134. 216. 216. 216. 208. 142. 79. 80. 97. 164.
      203. 208. 173. 102. 85. 86. 150. 219. 221. 219. 220. 223. 222.
      221. 220. 219. 219. 217. 214. 165. 96. 66. 63. 66. 97. 169. 207.
      209. 211. 213. 214. 215. 216. 215. 215. 215. 214. 197. 143. 96.
      80. 81. 84. 80. 77. 81. 120. 192. 213. 214. 216. 215. 189. 120.
      83. 83. 98. 114. 112. 90. 81. 83. 132. 207. 215. 217. 210. 153.
      88. 81. 107. 152. 172. 165. 122. 86. 84. 126. 202. 218. 217. 218.
      218. 219. 216. 196. 120. 87. 107. 188. 222. 220. 221. 221. 220.
      221. 222. 222. 222. 222. 222. 221. 222. 220. 218. 216. 167. 89.
      97. 168. 129. 80. 104. 181. 216. 212. 164. 97. 86. 135. 214. 219.
      211. 148. 81. 81. 134. 221. 225. 224. 220. 180. 96. 81. 104. 193.
      220. 218. 199. 114. 80. 87. 164. 229. 227. 223. 221. 170. 93. 83.
      112. 202. 219. 221. 219. 221. 220. 220. 220. 219. 219. 218. 216.
      180. 103. 73. 63. 73. 109. 186. 207. 208. 212. 213. 213. 214. 214.
      215. 217. 215. 206. 144. 89. 84. 118. 166. 190. 160. 90. 77. 84.
      151. 210. 215. 215. 209. 135. 85. 87. 127. 189. 214. 216. 168. 92.
      85. 107. 191. 215. 217. 188. 102. 82. 107. 187. 223. 222. 222.
      186. 102. 89. 107. 190. 218. 215. 217. 216. 214. 212. 153. 92. 88.
      149. 216. 220. 219. 220. 220. 220. 220. 221. 221. 221. 222. 222.
      221. 221. 221. 218. 217. 167. 91. 95. 174. 145. 83. 81. 120. 198.
      191. 108. 84. 93. 159. 223. 218. 207. 128. 80. 94. 178. 221. 220.
      220. 218. 208. 122. 84. 91. 168. 223. 218. 196. 106. 79. 103. 198.
      221. 217. 221. 219. 202. 114. 82. 95. 181. 223. 221. 219. 219.
      219. 219. 219. 216. 216. 216. 215. 193. 110. 78. 64. 78. 127. 197.
      206. 208. 210. 212. 213. 213. 213. 213. 214. 213. 166. 97. 86.
      132. 205. 220. 220. 216. 149. 85. 80. 121. 202. 214. 214. 184. 97.
      80. 121. 201. 219. 218. 218. 203. 113. 83. 100. 184. 216. 214.
      160. 87. 84. 156. 215. 216. 216. 216. 199. 115. 85. 105. 189. 217.
      216. 217. 214. 214. 186. 109. 86. 108. 195. 220. 218. 218. 218.
      219. 219. 219. 220. 220. 220. 221. 220. 220. 219. 219. 218. 216.
      163. 89. 95. 178. 199. 119. 81. 88. 137. 130. 86. 84. 131. 213.
      221. 217. 204. 126. 81. 101. 187. 217. 217. 218. 218. 214. 168.
      134. 138. 189. 221. 220. 194. 108. 81. 110. 201. 219. 218. 220.
      219. 215. 168. 139. 147. 200. 220. 219. 218. 217. 216. 213. 214.
      215. 216. 213. 213. 200. 120. 81. 65. 82. 145. 200. 203. 205. 205.
      208. 210. 211. 213. 213. 214. 204. 116. 82. 111. 200. 215. 213.
      214. 215. 187. 95. 78. 107. 201. 214. 213. 150. 82. 87. 164. 215.
      213. 213. 216. 205. 114. 88. 117. 195. 215. 208. 138. 82. 95. 184.
      216. 213. 215. 215. 205. 152. 129. 158. 207. 215. 215. 215. 215.
      206. 131. 87. 91. 162. 218. 217. 216. 216. 219. 219. 218. 219.
      219. 219. 220. 220. 219. 218. 217. 218. 216. 215. 164. 89. 89.
      175. 216. 177. 89. 81. 85. 85. 81. 96. 183. 224. 218. 217. 206.
      130. 82. 98. 185. 219. 214. 216. 218. 217. 218. 219. 223. 224.
      220. 220. 200. 116. 83. 107. 194. 219. 217. 219. 219. 220. 222.
      222. 225. 224. 219. 218. 217. 215. 210. 205. 203. 202. 206. 210.
      211. 202. 131. 82. 67. 89. 160. 196. 194. 195. 199. 203. 206. 209.
